96 1000
mov -0.27418324 -1.6011711 0.29339242 2.060876 -1.2477577 -0.103749745 1.3016951 1.1297296 1.1672219 -0.4423355 -0.7613182 0.027918365 0.39498353 0.20065029 0.13149643 2.646964 -1.1220629 1.7582222 -1.3439441 -1.0986559 -0.24549016 -0.9526908 0.8059381 -0.5983119 -1.0130678 -1.7257991 0.4125859 0.09097975 -0.15238215 -0.2628768 -0.6267697 0.32675558 -0.15427984 0.09009128 0.27563506 0.9385421 -0.7047596 -0.17464449 -0.04116767 0.025803769 0.14607899 0.6028226 -0.8214463 -0.61914116 0.74166113 0.14951442 0.011871678 0.25465766 -0.62910897 -0.12717299 0.9284179 -0.6276932 0.48398754 0.017627137 0.0949099 -1.2188616 0.09560564 -0.5423208 -0.3309287 -0.2148076 -0.6646883 1.0487871 -0.78121024 -0.3683472 0.079980545 0.5756778 0.20291746 0.31248096 -0.05757605 0.11448888 -0.088782765 0.068470195 0.15063918 -0.17811765 0.12162206 0.19315451 -0.22384806 -0.24969865 -0.3516346 -0.053204566 0.18020746 -0.3680768 0.57029146 -0.022076882 0.22429278 -0.22328989 0.6093867 0.31327933 -0.02614502 -0.7439164 -0.017061278 0.569036 -0.4857093 -0.66311824 0.153934 0.49908248 -0.05057962 0.054873254 0.43660757 -0.6818933 -0.3768126 0.10572686 1.8150034 0.77196425 -0.82335746 -0.41742626 0.1873487 -0.4279978 -1.0985229 -0.5551245 -0.19342317 -0.0037484334 -0.007116117 -0.21597122 0.40555134 0.9655362 0.8560511 0.021205235 -1.1278776 0.0501556 0.1299895 0.031728562 0.17364983 0.48945376 0.010845922 0.16150275 0.6991685 -0.22904116 0.4096151 -0.22750914 0.35996088 -0.1648685 0.2955216 0.46488997 -0.1342174 0.3749468 0.22136128 -0.951748 0.39813945 -0.5944535 -0.6068349 0.58656824 -0.039223272 0.7309228 0.23612939 -0.17820665 -0.15045412 -0.11199955 0.4791084 -0.47607648 -0.4070826 0.021618353 -0.50167435 -0.23912582 -0.005938028 0.34229857 -0.7341341 -0.0959335 0.0015465365 -0.3281563 0.8465327 1.3171196 0.8373229 0.3950949 0.48020646 0.55044657 -0.34165347 -0.62154835 0.14951427 -0.09494135 -0.18335974 0.2359356 -0.94296056 -0.14705156 -0.043940507 -0.36138532 0.037314918 0.3309448 0.08027933 0.3483492 0.43143523 -0.11800051 0.20684795 0.36786312 -0.60711914 -0.7675128 -0.4120472 -1.0453837 0.66368693 0.78706497 0.391464 -0.16307098 0.47240806 -0.4276189 0.7335958 -0.20034195 0.7473349 0.36294135 0.2238797 0.14742595 0.22941643 0.37735158 0.2980616 0.06848918 -0.052644275 0.5403611 -0.36076596 -0.0070014633 -0.15970208 -0.5835678 -0.24505487 -0.57544744 0.9389176 -0.94486576 0.010917414 0.28830007 0.26984322 0.8609391 -0.02459344 0.16568713 0.116007835 -0.5416044 -0.30411923 0.44603068 0.4178643 -0.43098783 -0.39020213 0.03065176 0.18722837 0.21451353 -0.5888445 -0.105061255 -0.7483014 0.6479812 0.2455334 -0.51137394 -0.44723442 0.37088463 0.0008676142 -0.14266722 -0.018366514 0.07473503 0.0563882 0.5204083 -0.88431656 0.41281018 0.4602468 0.44819447 0.49086592 0.35891908 0.6398704 0.19666824 0.0040371423 -0.91292566 -0.6305062 0.45643723 0.32977688 0.08732011 -0.56149083 -0.7152355 -0.52488106 -0.40515748 -1.0870888 -0.6802367 0.345129 -0.29727873 0.7763324 -0.9295861 0.0035041773 -0.59383565 -0.5769705 0.76484257 -0.570321 -0.23652604 -0.15084025 0.055213995 0.6664726 -0.04218629 0.9555005 1.1276021 -0.87040484 0.27734068 0.48059896 -0.7250622 -0.023504071 0.85146093 0.06080721 -0.27295792 0.2982396 0.53919315 -0.18675871 0.28214285 -0.29827473 -0.16487844 0.6682104 0.41315058 0.01931753 0.05331345 -0.024077356 -0.10593344 -0.34661558 -0.32473475 0.49791488 0.14642105 -0.6306154 0.17114201 -0.27979758 0.28827417 -0.9374484 0.30607438 0.12604341 0.14086962 0.34448877 -0.06321732 -0.08527718 -0.4488154 -0.46105063 0.1724675 -0.04587548 -0.45996568 -0.079232045 0.7723237 0.44330335 0.44155952 0.29579988 -0.37224802 -0.055786617 -0.4796665 0.68782735 0.7092224 0.024294304 -0.4126965 0.22971042 0.0024438244 0.10401463 0.24750532 -0.090781264 -0.07613747 -0.66337526 0.48516873 -0.24334015 -0.17586812 -0.30189463 0.096765235 -0.15580164 0.377919 -0.8354882 -0.110228896 0.64779943 0.12326638 0.24232441 0.48690936 0.042844284 0.39257112 -0.048220444 0.45653728 -0.20060885 0.25672206 0.5765991 0.12640773 -0.1700676 -0.835446 0.53987896 0.0757863 0.8932265 0.6226832 0.16794251 -0.45690015 0.50170445 -0.57988137 0.3440909 -0.08388955 -0.35049278 0.22514655 -0.28040096 -0.53591025 -0.30712652 0.11654817 0.22231767 -0.39351714 0.42976728 -0.5728776 0.08455033 -0.4028632 -0.5992713 -0.102065474 -0.7401077 -0.5769928 -0.82434064 0.21516378 -0.11193097 -0.029167738 0.38127568 0.18675008 -0.7911816 -0.33711132 0.2403589 0.2076634 0.93436444 0.61629343 0.047586113 -0.47309545 -0.05322868 0.2983855 0.47443753 -0.06842954 -0.34999746 0.040389374 0.031233925 -0.026443606 0.029150667 -0.01269837 0.0010697722 -0.09368126 0.096180595 0.028298078 -0.31819618 -0.3534746 0.46010402 -0.09940933 0.026914464 -0.0027167432 -0.08428807 -0.22780369 0.02768047 -1.1185004 0.1360089 0.12576231 0.17921071 -0.100823455 0.51917243 0.12484714 0.7958823 -0.3160622 -0.23240373 0.017925283 -0.42854488 -0.24196924 0.05761312 0.2656661 -0.4255568 -0.16178504 0.9884331 -0.4297006 -0.375589 -0.13211389 0.19077787 0.28449216 -0.5005423 -0.10909336 -0.17509383 -0.24009797 0.1796559 -0.17943563 -0.63220525 0.34326297 0.23278725 0.061477922 -0.2714725 0.16985525 -0.15250315 -0.26719207 -0.091859475 -0.18333891 0.0017694238 -0.06448882 0.11348 0.082859054 -0.073139176 -0.028137563 0.054621063 0.05832198 0.33256 0.13481073 -0.09094877 -0.051040694 -0.37044603 0.23455396 0.14365782 0.022215886 -0.396628 0.7138129 0.36698806 -0.5080234 -0.40654355 0.3589495 0.002357203 -0.34943876 -0.1604952 0.31736255 -0.14123634 -0.56809926 0.3596812 -0.7580423 0.5612356 0.5052077 0.081087776 0.09181131 -0.543161 -0.64078814 -0.3159437 0.2605088 -0.41642174 0.9409144 0.76349753 0.48780245 -0.4322618 -0.4232372 -0.05046457 0.4038613 0.0023609924 0.008652494 1.1863372 -0.51891994 0.56075025 -0.6613602 -0.308454 0.36305925 0.43412858 0.21165323 0.06475164 0.3762628 0.40796936 0.32715294 0.24720244 -0.5346943 -0.36538127 -0.4725392 -0.11109158 0.1961833 0.10066934 -0.2823112 0.18443032 0.061184835 -0.12722346 -0.008161837 -0.04087434 0.32175654 -0.16441134 -0.3094118 -0.2838268 -0.034379248 0.12985069 0.21068546 -0.124152794 0.04979213 -0.16456276 -0.56475484 -0.2606307 0.75355166 0.012841478 0.20846996 -0.23385572 0.058241624 -0.14755496 -0.0639013 0.3637662 -0.13000983 0.44183102 -0.41916376 0.258009 0.73879147 -0.28705236 -0.13195549 -0.25175315 -0.43870714 -0.3099097 0.0048129708 0.47931123 0.5395489 0.13998854 -0.24220107 -0.5089919 -0.45607406 0.007796528 -0.8870695 -0.28477192 1.3026179 0.061118275 0.024108924 -0.35018697 0.7654154 -0.60725975 -0.067567736 0.19623826 -0.13450372 -0.039754327 -0.3219979 -0.29874998 0.23141801 -0.4494683 0.7767486 -0.8188261 0.63156146 0.029981073 -0.68178976 0.43113005 0.68500096 0.09355275 0.60023975 0.4398152 0.41624478 -1.6953121 1.0518078 -0.70668244 -0.17534754 0.5520321 0.36379397 0.11321293 -0.38053536 0.065301724 0.6349888 0.18846925 -0.31572798 0.21804184 -0.018828955 -0.39732647 0.82548505 -0.31057623 0.03435784 -0.14440499 -0.55085874 -0.24843004 -0.49391428 -0.39104792 0.5023647 -0.41541773 0.4267395 0.4020927 -0.18805833 0.6910675 0.517337 0.24515292 0.2873457 -0.8994171 -0.06208397 -0.24063204 0.018358072 0.5175408 0.043899983 -0.34852305 -0.0975906 0.5296089 0.11318888 -0.075775586 0.1430754 0.2669825 0.10002546 0.26721033 0.3061389 0.5513953 -0.4367062 -0.023444748 0.11469899 -0.014423798 -0.0035762396 0.23682736 0.038692463 0.31956205 0.09138757 -0.141191 -0.013726815 -0.27491218 0.51545733 0.3105911 -0.02137795 -0.86905473 0.24837011 -0.41632938 -0.11505385 -0.15728754 -0.7743661 -0.22099642 0.17323717 -0.105312675 0.17713828 -0.0002740132 -0.39207354 0.46642575 0.48874313 -0.14452696 -0.8933967 -0.53982824 -0.5265367 -0.3007265 0.020719714 -0.20923957 -0.39484876 0.5647026 -0.13074858 0.24206693 -0.03754466 -0.08062052 -0.534109 -0.124730006 -0.23657987 0.043135665 -0.16398907 0.17108166 -0.3436919 -0.34432784 0.2765007 -0.4940439 -0.2715476 -0.26503387 0.18918978 0.26374838 0.024809625 -0.5695174 -0.36993745 -0.56842357 0.18240911 -0.07240326 -0.14280552 0.3951293 0.0366106 0.032017946 -0.07701475 -0.49690682 -0.27110517 0.12528582 0.011160708 0.09599106 -0.21380572 0.13418712 -0.04522655 -0.12523295 0.38764656 0.49646148 0.38632601 -0.232402 -0.44504204 -0.20532681 -0.04436505 0.7173638 -0.15424685 0.242706 0.012500177 0.16628549 -0.46392065 -0.24244113 -0.06297975 0.6276303 -0.17593591 0.013800715 -0.5787537 -0.2686061 0.46369496 -0.27214572 0.30148152 0.35957956 -0.041200846 -0.624878 0.43037096 0.4204381 -0.262691 -0.44181538 -0.45787814 -0.08157331 0.62720025 0.3252005 0.35617653 1.2388976 -0.16488907 -0.30769336 0.30323562 -0.26998374 0.104489125 -0.55013114 -0.026252566 1.0271821 0.34627596 0.17225498 -0.14501488 -0.20214011 0.2033134 -0.4225475 -0.40451768 0.014053854 0.23837231 0.022487944 -0.2570678 -0.023301467 -0.1837558 1.1006373 -0.27220082 -0.12655473 0.058778483 0.8321764 -0.16132493 -0.61604136 0.06120257 0.60850805 -0.011077442 0.107247174 0.3508843 0.15733461 -0.64331466 0.011487407 -0.35319397 0.3116922 0.30087194 0.5563737 0.09802194 -0.35320425 -0.08080732 0.05915619 -0.04169695 1.1521571 0.80556995 -1.4633243 -0.2621728 0.57017493 0.39376634 0.92113066 0.30085894 0.7616807 -0.06634538 -0.28643623 -0.92339796 -0.89493334 -0.98423505 0.41389138 -0.6357381 -0.27662584 0.16993684 0.57565385 -0.0031384327 -0.2091992 -0.551187 -1.0556004 0.39472902 -0.3750193 0.10755913 -0.022064643 0.4545145 -0.48501867 -0.14194351 -0.6118673 -0.66788876 0.69664156 0.20864742 -0.06088 -0.0015105259 0.3629746 0.11783276 -0.31697115 0.7912995 -0.015900448 0.28500244 0.112150215 -0.6330325 0.21977337 0.53658396 -0.5366709 -0.45843035 0.05463622 0.6201383 0.004176326 0.04180131 -0.41623643 0.19132821 0.07402553 0.36235252 -0.35003856 -0.035013337 -0.61219865 0.45389554 -0.20542854 -0.49627465 -0.38577053 0.1623237 -0.05349733 -0.5266456 0.017797945 0.2331799 -0.14496134 -0.6507987 -0.115837745 -0.52317876 1.0374099 -1.2074779 -0.37017775 -1.0626277 0.37765163 0.22295965 0.28502923 0.23516087 0.1941141 -0.11977006 0.17973696 0.44828504 -0.1797252 -0.00850306 0.61902535 0.4584596 -0.023197776 0.6807273 0.39167845 -0.3372569 0.5747218 0.15671049 0.2005124 -0.65172267 0.15786037 -0.27196229 -0.12049729 0.021436628 0.20354386 -0.20234536 0.3811913 0.0934735 -0.28122646 0.3194375 -0.20747453 -0.40771648 0.10167196 -0.1069584 0.07273036 0.42349452 -0.56147283 -0.09597848 0.12833522 -0.3243518 -0.18030278 0.17264464 0.09460589 -0.013790919 -0.068642996 0.15102033 0.27200517 0.6428733 0.4501863 -0.36755213 -0.058167465 0.20821455 0.25801122 0.041934118 -0.16383612 0.08481942 -0.29274222 0.114878036 -0.09208417 -0.2672631 0.11034827 -0.167895 -0.17555389 0.39327833 -0.29110172 0.82683116 0.18160817 -0.019477148 0.15328115 -0.11564288 -0.4228673 -0.14114389 0.3149852 -0.61049074 0.36220858 -0.27298212 0.25640464 1.2480521 -0.1984792 -0.14142716 0.62119955 0.47196302 -1.8854709 -1.2368011 0.39475703 -0.2957626 -0.1584742 -1.0638872 1.2430462 -0.3142954 -0.40577692 -0.7001808 -0.268846 0.876463 -0.31019333 0.75455713 -0.2861634 -0.9746197 -0.04220817 0.059230328 0.46003965 -0.93760705 -0.006376954 -0.3196504 -0.2380659 -0.60749894 0.93278015 -0.24311641 -0.26682565 0.7084026 0.54965246 0.5264417 -0.182254 -0.13463096 -0.451622 -0.08105741
add -1.5230134 0.64562756 -1.3009865 2.837762 0.14575022 0.50417316 -0.47897267 0.503646 -1.3507599 0.84255296 0.8923528 -0.34683216 -1.2619373 -0.2524501 1.3713722 -0.5045412 0.325613 -0.30487278 -0.5691047 -0.7108205 0.046573557 0.39495206 -0.6403434 0.21188252 -1.8884647 -1.2627416 -0.3026165 0.53577536 0.6009003 -0.16204819 0.17510508 0.34440473 1.0493438 0.3394958 0.001632449 0.351002 0.58133924 0.46380934 0.5668695 0.3977725 -0.64882135 -0.06782008 -0.9485953 0.2067116 -1.2144859 0.047320683 0.001859161 -0.4309558 1.6013432 -0.4222694 -1.3016391 -0.31383997 0.31384915 -1.5434854 -0.8692111 2.073847 -0.6477685 -1.863238 -0.4307037 -1.3209914 -1.06773 -0.06599611 -0.7449248 -0.038891155 -0.2898302 -1.703214 0.95838827 -1.120223 -0.7598745 -0.28377596 0.5664427 0.063655704 -0.5410591 -0.82334596 0.27379018 -1.3393443 0.46395952 1.2531514 -0.24690083 -1.1572129 -0.6555771 0.2775126 0.7191585 0.14870232 0.87792736 1.718306 -0.9038402 0.105381444 0.5079664 0.35894075 0.051925685 0.3105109 -0.062221512 1.0967593 1.481609 -1.0982497 1.5187308 -0.47177383 0.03652684 -0.4793082 -0.47004157 -0.7961426 -0.99774873 -0.14667976 0.0073898053 1.1012709 -0.11841966 0.91812676 0.7989508 0.6833774 -0.5406724 -0.40032992 -0.25903296 0.49477577 -0.7679425 -0.9531302 -0.73879904 0.55679655 0.5812036 -0.59615076 -0.4877457 0.07661667 0.21064335 -0.6148722 0.6443433 -1.8252933 -0.65522105 -0.6040672 0.15855807 -0.09864236 1.2198764 0.45620346 -0.3374197 -1.1428175 0.040756162 1.0556467 0.00040917864 -0.2582358 -1.9147907 -1.0234509 0.11067492 -0.4232207 0.27012488 0.62187713 0.96191317 0.48480797 -1.3812351 -0.3418696 -0.6084328 0.7762592 -0.9514169 -0.06371884 1.1432198 -0.37564233 -0.9890212 0.70754284 1.292 -0.15079777 -0.5856647 -1.2582413 -0.39807737 1.0020444 0.21565121 1.5549209 1.8965302 -0.9903607 1.1129552 -0.28141224 -0.35386157 -0.5899247 -0.32511976 0.6214942 0.41492775 0.58092874 -1.6639822 0.36836886 1.4144082 -0.6295403 -0.46023554 0.13513164 1.0517985 -2.2430375 2.1460724 0.14287153 0.78709644 0.24847569 0.20376036 0.82571995 -1.382601 -0.03310654 -0.00669551 0.78508466 0.91297007 0.8606851 -0.27967077 0.65714 -0.78925735 -1.9889524 0.52306443 1.0523525 -0.45651475 0.89293283 1.2589561 -0.22371058 -0.5462874 -0.16311069 0.34719977 -1.330025 -0.1750372 0.018368812 0.8189938 -0.5434859 -1.2131191 0.86001503 -0.45907357 -0.02406817 -0.057733722 0.25343084 0.66897166 -0.87333137 -0.71622026 1.0171936 -0.55484766 0.5360218 -1.1887922 0.5019205 -0.2228796 -0.58709884 0.3599448 0.39729998 -1.2832754 0.81208026 1.6399281 -1.1189705 -1.3015246 -1.5337542 -0.033866096 0.21152665 -0.7628269 0.6395825 -0.41833454 0.72482675 -1.2253398 -0.64252114 0.32465586 -0.96317774 0.006207317 0.79052013 1.2645288 2.2933307 0.35652736 0.22265136 -0.8914486 0.7937734 -0.3262081 -1.0903943 -0.35548154 0.25461665 0.94289464 0.3587957 0.23322418 1.6747632 1.6211159 0.441284 -0.38824138 0.59192723 -0.025627313 -0.87800926 0.7247867 0.09298833 -0.60101247 -0.21707393 0.45566893 -1.1219274 0.10535909 -0.21375835 -0.43553016 0.109304555 -0.5680453 -0.7711931 1.3663849 0.95396835 0.34715945 -0.334668 0.19590323 -0.60713863 -0.7753535 -0.40397653 0.82443774 0.52684736 -0.31649268 1.1830525 1.6482997 -0.36756033 -2.1366584 -1.811932 -0.9510448 -0.21062562 -0.43169224 0.9044303 1.8243555 -0.18790191 -0.57633054 -0.5974557 -0.22598101 -0.6009304 0.06676363 -0.43641663 0.27571073 0.18553177 -0.6192528 0.10084078 0.15762442 -0.7628417 0.65778327 0.2671492 0.11947599 -0.24409 -0.40858874 -0.88062996 0.15121184 -0.13117139 -1.2544308 1.1441824 -0.55405474 -0.105605125 -0.26656917 0.6006426 -2.0157852 -1.5606984 1.2575111 0.108402885 -1.9119507 0.9242997 -0.34443697 0.33520377 1.174379 0.608657 1.1440974 -1.227975 -0.9137907 -1.1680692 0.9472922 0.2654818 0.6765893 0.18456745 0.8720343 0.7999645 0.76745623 1.4452794 -0.9959607 -0.5253288 0.47638366 0.5472651 0.8356014 -0.8392986 -0.61768365 -2.0309632 0.8361526 -0.012069238 0.13708466 -0.2917415 -0.08942316 0.1396691 -0.1272662 -0.53852105 -0.7161293 0.3336596 -0.7701125 -0.7235275 0.0040344866 0.28355283 -0.27207714 0.18096484 -0.25536627 0.9976141 -0.0392286 0.46019274 0.45891535 0.25363198 -0.32805222 -1.6836616 -1.7713084 -0.5097931 0.7714443 0.4215044 0.25644186 0.076743424 1.8317543 -1.189923 0.7228187 0.86746395 0.019669116 0.009036368 0.6467947 1.7415242 0.26763427 -1.5420023 -0.9573081 -0.2940677 -1.2445587 0.35613754 -0.1479515 -0.4014527 0.12840556 -0.6048554 0.77631485 -0.015566172 0.63962907 -0.09678175 -0.6264562 0.81508416 0.22798426 0.3710593 0.24915116 -0.24319072 0.7933162 -1.2597237 1.1361362 -1.0803502 0.54476655 0.7726697 0.4339862 -0.44747886 -0.31139252 1.1403435 -0.57352203 -2.2497518 -1.2546961 -0.047539666 -0.4904231 -0.6376297 -1.0711373 1.0211573 -1.3737347 -0.035229713 1.2135968 0.43977085 0.25408292 0.31000325 -0.24330612 0.19757836 0.46958742 0.5878502 0.41759244 -1.387834 -0.71947724 -0.019522272 1.1813995 0.8873025 0.7340992 -0.09137131 -0.6045989 0.5454865 0.39307833 -0.83860546 -1.3056759 -1.2592034 0.12755187 0.507245 0.6747432 0.8984282 -0.3845922 -0.21003446 0.09783201 0.5932344 0.14779545 1.1419218 -0.032285094 -0.023428628 0.46898347 0.52543783 -1.0488359 -0.36096993 -1.1326712 0.36470917 0.82360184 -0.47780856 -0.14954789 -1.7033306 0.4570303 0.41169128 0.74973655 -0.15656233 0.8096411 -0.6436249 -0.39090848 -0.92682785 -0.27873674 -0.4253206 0.20782302 -1.0060264 -0.2695912 -0.17788991 0.44856447 -0.16122432 0.06369203 -0.043426253 -0.07959868 0.33512816 0.41042772 -0.4838074 0.24559107 0.01551179 -0.09485471 -0.66775036 -0.26123947 -0.49706808 -0.12273631 -0.085121974 0.70732105 -0.62997913 -0.57109034 0.3368386 0.99445266 -0.19350833 0.90971583 0.0080258725 -0.076896265 -0.4651867 -0.96001714 1.925778 -0.7884161 -0.32835877 1.4304702 0.1360276 0.35941386 -0.40007707 0.9658696 0.34538713 -0.121888496 -0.37059847 -0.7624982 -1.4241699 1.7897756 0.6201554 -0.06593414 0.7602241 -1.7469187 -1.617496 0.46278462 0.5491315 -0.254299 -0.609175 -0.6870069 0.7019457 -0.024294332 0.053426914 -0.8082664 0.52692175 -0.13087213 -0.29137227 0.39648932 0.3069314 -1.0858954 -0.7713532 1.5962425 -1.3049567 -0.893597 -0.36834854 -0.33191085 -0.06709475 -0.22066711 -0.01994142 -0.29121417 -0.95518726 -0.023126533 0.29300508 -0.18210915 0.9917706 0.38839656 0.5699517 -0.44314396 -0.21009319 -0.7201929 -0.36808038 0.29382232 -0.6797314 -0.7727688 0.5127261 -1.0176575 -0.31755164 0.4615758 0.64062 -0.1807787 0.099150345 -0.65395206 0.3829768 0.07065081 0.18600303 1.1625421 -0.51832867 0.51071215 -0.13523076 0.6859692 0.019421725 9.748982e-05 -0.02574659 0.046289593 -1.1365314 -1.126512 0.15875468 -0.5509487 0.37592718 -0.3266137 0.23255908 0.33244047 0.30657256 -0.7596531 2.2693954 0.12916975 -0.90886736 1.1713495 0.9660721 -1.0123334 -0.05308071 -0.20568605 -0.59917456 0.29459256 -0.712816 0.20657837 -0.36519834 -0.41204664 -0.16576323 -0.4257154 0.040143397 -0.274568 -0.75143003 0.66210157 -0.7968662 -0.027596207 -0.90817046 -0.08012918 -0.23838112 0.32028276 0.4526367 -0.48328903 0.90787965 -0.97058445 -0.0852876 0.00948997 -0.33891892 -0.79949623 -0.35094932 0.53814554 0.2522553 -0.27248424 0.7627147 -1.2305224 0.3281182 -0.3947587 0.2082363 0.6864888 1.0364287 0.36682913 1.160975 -0.6704473 0.4141749 -0.008932602 0.17775767 0.017615266 -0.8918747 -0.22207248 0.021394247 -0.8640288 0.27873197 1.1144626 -0.52478385 0.22672658 0.014713097 0.48534206 -0.94027644 -1.0998214 -0.26242605 -0.5630401 0.2075744 0.60238606 -0.48827785 0.099793345 0.3513325 0.11429303 0.06586525 0.13860154 -0.12251699 -0.21713448 0.2749021 0.50205153 0.45449024 0.1590321 -0.553173 0.17733502 -0.042069823 0.04559921 0.3907669 0.70012885 0.0063727745 -1.2965121 0.70325077 0.10592604 -0.25197315 0.3159587 -0.50345796 0.6339807 0.82300174 -0.19850026 -0.71118814 -0.029923636 0.32610247 1.3338469 0.9757892 0.7718562 -0.17129695 0.50822026 0.5625885 -0.108779304 1.1599962 -0.22708707 0.7159319 1.1530912 1.4984833 -0.59248453 0.16881135 0.09345138 -0.026453054 0.16173528 0.38539365 1.4940333 -0.9544706 -0.38829574 -0.7694374 0.7080249 0.20343204 0.19589728 -0.3469948 -0.30586594 -0.24198575 1.3483235 0.16071342 1.2533624 0.24883042 0.6315679 -0.6121529 -1.0331675 -0.9459602 -0.023258077 0.89090294 1.0495399 -1.9260061 -0.98376936 -1.1908288 -1.7694052 0.1631042 0.83495057 0.13511959 -0.1839803 0.45581675 0.24226569 0.6693769 0.068158686 -0.9850058 -2.1641884 0.9389417 -1.7430912 -0.07659736 -0.30171704 -0.36527577 0.6890332 0.56630117 0.3236158 -0.35982478 -0.4375647 0.056627832 0.04907738 0.6000873 0.25343874 0.21306565 -0.16982394 0.4051124 0.2849846 -0.21142903 -0.014319343 -0.3875742 -0.035269253 -1.1509888 0.4948579 -0.42897123 0.28750536 -0.65225893 -0.029262004 0.5848674 -0.7153264 0.53711534 -0.29732326 0.35000855 -0.94302887 0.80418086 -0.15193874 0.31247196 -0.050426953 -0.09757169 -0.6048292 0.21455069 -0.290632 -0.20589168 0.240009 -0.49340984 -0.14758803 0.59313637 -1.0310853 -0.7478426 0.62591183 -0.17560229 -0.57998866 -0.23967649 -0.26915586 -0.14650647 0.9370218 1.196911 -0.008127419 0.52313334 0.02612818 0.26004553 -0.42364693 0.7310144 0.4239212 -0.7003591 -1.0347065 -0.3827167 0.7660024 0.45139453 0.3720472 -0.94600314 -0.1316343 0.3277422 -0.34322408 -0.11123903 0.51976454 -0.7157784 -0.41817996 0.36239612 -0.5351207 -0.5385812 -0.3467079 -0.63592976 0.4476781 0.34270468 0.1692253 -0.093895905 -0.27666923 -1.579288 0.40188953 0.6220369 -0.49650747 0.5343538 -1.321952 -1.1485772 1.1691287 0.5623998 1.2342019 0.74450785 0.89417666 -0.27016354 -1.482869 0.3245772 0.22904532 -1.0618312 0.87630796 -0.71300685 0.21411161 0.2569849 -0.44155452 0.058043882 -0.41401595 1.1448028 0.057833053 0.4984794 -0.6325519 1.4992406 -0.5067098 -0.32481158 -1.3904867 0.6761526 1.0977799 -0.81300825 -0.125688 0.68316454 -0.8352436 -0.95916337 -0.08261753 0.13154462 0.756417 -0.045077503 0.006187374 1.0499744 -0.85057974 -0.6571678 0.59794676 -1.1071302 -0.81363714 1.5021523 0.33487773 0.88553077 -0.1269462 0.47017744 -0.06706381 0.89327323 -0.6951997 0.22242242 -0.24351604 1.0399344 0.5274888 -0.7974474 0.14492956 -0.48868904 -0.70174146 -0.5150407 -0.23642859 -0.20094563 -0.36685082 -0.6812641 0.7112496 -0.2819576 0.4444234 -0.27825156 -0.4201395 -0.7041008 -0.2558403 -0.6441181 -0.3551522 0.21775465 -0.33635107 -0.8854264 -1.2477826 -0.019109093 -0.5549909 0.33544 0.7802563 -0.1773167 -0.52075523 1.1297054 0.4638557 0.32057437 0.37572262 0.59266955 -0.009878389 0.44732586 -0.20088126 0.06309802 0.20360705 0.36708215 -1.0350447 -0.8512631 1.6703582 -0.23895694 -0.77786547 1.3726966 0.6077533 -1.2211846 -0.6342253 -0.54206985 -0.43441927 0.27774438 -0.0322907 -0.56803846 -0.24512357 1.2924223 -1.2466563 0.6840202 -0.51616526 -0.74601644 -1.3246775 0.23752505 -1.2499998 -0.68293244 -1.1266681 1.193516 -1.2053304 0.97889173 -0.32924995 0.49170446 0.5965239 -0.24567306 0.012448292 1.6395744 0.44514036 -0.7073333 0.21461233 -0.33874005 0.37603706 -0.5540347 0.8165507 0.004005887 0.187603 0.47520792 0.5119647 -0.4754088 0.654211 0.32403228 -0.27954906 0.07984137
push -1.032078 0.7260797 0.16455215 0.63944715 -0.79950905 0.15948935 -0.8801467 1.0388216 0.51003635 0.5904031 -1.3375405 0.6770678 -0.74772316 0.037795708 0.5302533 -0.08838701 -0.38744706 1.2307905 -1.107573 -0.8284786 -0.5243039 -0.100040376 -0.24949273 0.108470805 -0.27854538 -0.7922979 -0.43986547 0.08906467 0.04099313 -0.20225851 -1.3834066 -0.21018036 0.74889916 0.19917768 0.5794632 1.0493416 0.304636 -0.21613659 0.05119229 -0.2843573 0.10360848 -1.0100526 -0.2214744 -0.5694052 0.46089378 1.1678072 0.17540152 -0.33121204 0.09369896 -0.23369478 0.37762967 0.6452323 0.48445776 0.015921926 0.95723283 0.13736205 -0.65533596 -0.15875338 -0.31641257 -0.028732233 -0.52919114 -0.27001834 -0.44014296 -0.15847018 0.8773579 0.66404635 0.34843543 0.17453723 0.84511375 0.5237279 -0.6043187 0.572839 -0.032332342 -0.6176345 0.23334485 -0.033042572 0.33584717 -0.2875316 -0.5802849 0.4894196 -0.09970352 0.2604626 -1.2063569 0.6049498 -0.196426 -0.6726794 -0.3982361 -0.37325844 0.2921564 -0.1454235 0.55255854 0.12019201 -0.5932216 0.23935784 -0.31850678 0.8099724 -0.87156266 0.39915994 -0.09508111 -0.20281202 0.16408205 -0.020979024 1.0597668 -0.627853 -0.4283232 -0.28647238 0.3690396 -0.56889904 -0.26731643 -0.62207806 -0.026713591 -0.097213134 -0.31281936 -0.35174718 -0.18914215 0.19687788 0.42946878 0.51827353 -0.2866901 0.38971838 0.8355562 -0.04529791 -0.15068221 0.18500876 -0.50035423 0.8863883 -0.65273684 0.28108752 -0.18276021 -0.35559332 0.22192225 0.1068801 -0.2988174 0.2658823 -0.21972568 0.19394799 0.03621093 -0.52970374 0.2164921 -0.07200638 -0.2533765 0.21009357 0.6661865 0.02367535 0.52537096 -0.38693085 0.1609455 0.06623183 0.7303631 0.18510936 -0.2949181 -0.86689687 -0.64504683 -0.17250659 -1.0532 -0.99034184 0.36331406 0.23702122 -1.0588 -0.6427189 0.23818944 1.5415674 0.2756972 0.9450081 0.49596378 -0.58473295 0.3195268 0.6672853 -0.69809663 -0.20766792 -0.23198958 0.3815418 -0.790293 -0.21660908 -0.5145397 -0.011839727 -0.22479248 0.5135783 0.17774388 0.63727814 1.2528673 -0.4516289 0.15330493 0.24567351 0.37487462 -0.4081851 -0.40431964 -0.7769965 -0.21426435 0.67474645 -1.0066183 -0.42322797 -0.22613865 -0.4925026 0.33342215 0.009841509 -0.69182104 -0.7204432 0.018053463 -0.16510843 0.28867486 -0.5351132 0.47678962 0.5521813 0.06498133 -0.1411017 -0.070149325 0.48123795 0.20644172 -0.05524903 0.4796096 0.2629187 0.46987504 0.008967739 -0.74359536 -0.26701093 0.20802426 0.1711956 0.2134327 0.4558607 -0.29942045 -0.70443165 -0.10214032 0.15199892 0.010905401 1.3257073 0.34694955 0.2651292 0.14123085 0.8981019 -0.70374966 1.1907312 -0.69094056 -0.3189188 0.6097682 -0.4647317 -0.8329768 -0.30289868 -0.47089255 -0.06743198 0.6374254 0.35433722 0.55641776 0.34237504 -0.26350874 0.0773 -0.96593714 1.0261067 0.80379784 1.2503933 0.9175399 0.2526576 0.11806001 -0.50652826 -0.9887546 -0.24914347 0.08723925 0.22437142 -0.2295408 -0.8359978 -0.0653955 -0.48935783 -1.3714234 -0.13341999 -0.20960937 -0.016850837 0.09650141 0.70913255 0.19442442 0.048332904 0.64129454 -0.5590895 -0.423607 0.16673835 -0.09272806 0.10641707 0.54022586 0.3827003 0.8162994 1.0976852 -0.9054466 0.25951865 0.23572606 -0.6459758 0.3577827 0.3718968 0.66600245 -0.1840393 -0.27439412 -0.6429193 -0.079947315 -0.45584336 0.6072576 0.15187348 -0.06181667 0.6555273 0.41007057 0.07749777 -0.0553449 -0.39604694 -0.62821525 0.0508884 0.0062505007 0.20613292 -0.18206349 0.16581994 0.014970528 -0.11836525 -0.023259623 -0.37003627 -0.46094677 -0.08771823 0.14703058 0.25255036 0.026943425 0.5631197 -0.06115112 -0.30495006 -0.0045106835 0.49413574 0.35958534 0.01901783 0.112269826 0.0019699095 0.65086 -0.4283222 -0.010828343 -0.08007462 0.16411206 -0.5172552 0.11974628 -0.12298783 -0.3257322 -0.13326791 -0.5037515 0.0021998964 -0.26005533 -0.5811903 -0.8474604 0.55599886 -0.118926965 0.07450267 -0.7054879 0.56115955 -0.16560641 0.5787475 -0.1865954 0.043430414 0.3258361 -0.30875608 0.04286823 0.40069258 0.44031146 0.44572395 -0.083138414 0.24987599 -0.6741155 -0.0030082162 0.6842269 0.34147766 -0.083109684 0.057931207 0.099842705 -0.44135693 1.0373951 0.3411288 0.028945236 -0.3502761 0.35188696 -0.21099354 0.18584675 0.55831784 0.32998133 -0.033326413 -0.31357035 0.23831423 0.3250007 0.121967226 0.2909428 -1.0165471 0.29079264 -0.59272665 -0.120029874 -0.8545426 -0.09046644 0.35800964 -0.45229948 0.32332134 0.022328986 0.23292062 -0.17716247 0.085126266 0.37056097 0.10828949 0.32396257 0.36732423 0.12580894 -0.31736654 0.030251062 -0.033961914 -0.17139706 0.33835635 0.0483712 0.200448 -0.07649736 -0.4697508 0.22441722 0.27138332 -0.057829104 -0.13428277 0.067836694 -0.52946734 -0.2247982 -0.06749259 0.26486027 0.29333153 1.7945464 -0.18719846 0.050831065 0.24682388 -0.5449379 -0.37878504 -0.11479839 0.315796 0.19831896 -0.017479083 -0.41331097 0.6711744 0.33767965 -0.6116327 -0.8962827 -0.20697878 -0.5247867 0.010031797 -0.56014735 -0.12831688 -0.07972377 -0.06796504 0.15007186 0.17187414 -0.46740913 0.36842516 1.5529869 -0.76158005 -0.7220584 -0.52418715 0.56298953 0.52520114 -0.9800114 0.23766355 -0.5313136 0.29269597 -0.21342629 0.14869766 -0.15548486 0.21583459 -0.62334436 -0.42384812 0.31594872 0.21084337 -0.19789924 -0.35488975 -0.42922202 -0.2686342 0.373675 -0.08842777 -0.1931768 0.19915378 -0.23725212 -0.85397696 0.24951938 0.49699047 0.044754267 -0.39065254 -0.37411198 0.11038758 0.10303535 0.6513421 -0.15158446 -0.4011365 -0.57773876 0.10133976 0.18268508 -0.10907449 -0.31717908 -0.1377213 0.21350685 -0.08432717 0.16469403 0.3386702 -0.31810015 -0.7005789 -0.026783124 -0.44126529 0.5515091 0.014820554 0.0082589025 0.33790022 -0.34431294 -0.69274974 0.12531804 0.13727878 -0.16712342 1.0191453 0.97688496 0.4282871 -0.5806026 -0.18095832 -0.38005206 0.28763455 0.23848274 0.076334484 1.416637 -0.9770461 0.38823903 -0.5620701 -0.71054137 -0.40110147 0.91367716 0.6162674 -0.047998905 1.038748 -0.12467988 0.18242824 0.22672747 -0.8233038 0.4316349 0.31492752 0.9380262 0.055291165 -0.1766823 0.19917306 0.31678855 -0.7375883 0.4395015 0.24119331 -0.15441528 0.9022271 -1.0273572 -0.11879349 -0.57832646 0.14421655 0.36607078 0.28573504 0.19592084 0.065233424 -0.3107463 -0.9118471 -0.79050994 0.0016936936 0.71933526 0.80792093 0.27516508 -0.3524082 -0.23710304 -0.1630147 0.42294243 -0.5511369 -0.27452484 -0.9429559 0.25926292 -0.36059457 -0.97289824 -0.7398608 -0.32767394 -0.80883217 -0.4281301 0.2203863 0.26582834 0.3699236 0.115112916 0.10467973 -0.38007295 -0.43673146 -0.34616637 -0.6805263 -0.2927702 0.5371197 0.3905114 -0.040904965 -0.4692268 0.59575886 -0.8277892 -0.1077225 0.13928641 -0.25355405 0.42547837 -0.4221973 -0.25557637 0.24982613 -0.2743189 0.9155149 -0.6922028 0.08873719 0.022896927 -0.79049355 0.33559698 0.53389716 0.03769715 0.3364779 -0.25426298 0.3426251 -1.5829396 0.96274984 -0.62000734 -0.3468066 0.8108046 0.68072045 0.24624196 -0.44491476 -0.37612608 0.9146428 0.4171077 -0.6299638 -0.29549527 0.45741072 0.08113965 0.45612746 -0.16167092 -0.04523515 0.2813655 -0.1278671 -0.4511532 -0.13565032 -0.38085738 0.26242688 -0.279663 -0.11405437 0.5545447 0.16050278 0.22332758 0.41179138 0.27380425 -0.18858308 0.02019632 0.45511556 -0.5996981 0.13296707 0.114901215 0.81339306 -1.2602443 -0.28982726 -0.12140891 -0.16394521 -0.26701435 0.46710193 -0.2572261 -0.31698748 -0.30351686 0.6841743 0.58684057 -0.7132388 0.12312889 -0.17154077 0.119222224 0.41830456 -0.23889251 0.48671076 0.1364035 0.5636809 0.3459538 0.29148844 -0.24344006 1.0260643 0.44255883 -0.15572506 -0.57923484 -0.17843816 -0.37332305 0.09846355 0.2968401 -0.9279564 -1.0163187 -0.261495 -0.33812556 -0.38629428 0.4527865 -0.619433 0.12405855 -0.014788954 0.18484995 -0.106979676 0.32012728 -0.71769387 0.12050294 0.5086114 -0.18471794 0.12506345 0.33920273 -0.36303642 -0.021533305 0.19168584 0.06167963 0.09500157 -0.20810501 -0.17727081 -0.50591713 -0.38579723 0.3905145 -0.20526464 -0.3507337 0.6674131 -0.53362525 0.13021661 -0.25183398 0.042158507 0.34698874 -0.06730979 -0.90417963 0.5660208 -0.029377032 0.066250846 -0.4806981 -0.5154102 0.51462734 0.56837934 0.3270559 -0.2472134 -0.23753972 0.0016430054 0.17770012 -0.07528891 -0.08194293 -0.784419 -0.045011315 -0.23146716 0.28199622 -0.2696652 -0.5094062 0.061239306 -0.26208627 -0.5535647 -0.40287992 0.25218847 0.74418885 0.18744129 0.23508376 -0.042750422 -0.37743947 -0.09222133 -0.027963 -0.056273554 0.18880758 0.14485787 -0.25084588 -0.57127684 0.016472569 0.62221295 -0.16330631 -0.089107454 0.037962023 -0.26750275 -0.4734639 0.3342576 0.049322683 -0.21907651 -0.29176816 -0.048493132 -0.4175346 0.49472043 0.041381486 -0.16828234 0.52520823 -0.088443495 0.049074832 0.09652703 0.12467873 -0.52370554 -0.44011158 -0.24009039 1.2630664 0.76450723 0.07251046 -0.16129467 0.08954161 -0.2870394 0.19679385 -0.49229205 -0.4495017 -0.6027775 0.060351007 -0.58756346 0.52153957 0.058251694 1.2413834 -0.07492648 -0.23641409 0.12600364 0.4031718 -0.42887074 -0.19315141 0.4996358 0.50212693 0.12943181 -0.31552526 -0.00028361948 0.014775636 0.025062306 0.3326186 -0.7763267 0.17969249 -0.062174596 0.29170713 -0.18898636 -0.5437694 0.07173373 -0.33294955 0.38059253 0.4464917 0.78838575 -0.33999237 0.6157726 -0.44617078 0.3251997 0.2767225 -0.09628814 0.8796737 0.6418424 -0.18564978 -0.6757056 -0.23850939 -0.24707188 0.33687177 -0.21800622 -0.06118858 -0.20849526 -0.824437 0.39949393 0.3129143 -0.4494994 -0.060757775 0.30347368 -0.50304353 0.34400338 -0.05996352 0.581587 -0.17625105 -0.22621913 -0.48634255 -0.9568113 0.16623355 -0.012010706 -0.08189911 0.0057965918 0.5936494 0.31090096 -0.0051314705 0.4527628 0.048538055 0.1997806 -0.31952465 -0.25491026 0.3053211 0.26972237 -0.19549851 -0.14865328 0.57054126 0.37322852 -0.40658423 0.4156224 0.051537003 -0.26094908 -0.06696002 0.5387695 -0.0018672592 -0.71186715 0.18283987 -0.15856463 0.14589155 0.13139743 -0.004243125 0.43752667 0.09207063 -0.021285549 -0.06406562 -0.2034086 -0.20444222 -0.5722581 0.17613316 -0.4758921 -0.25969553 -0.6858584 -0.17870872 -0.6120961 0.12142957 0.34027594 0.17877811 0.117158554 0.24716063 0.4013701 -0.28738907 0.6899981 -0.42357805 0.2744699 -0.16451684 0.11136538 0.010200822 0.40007964 -0.062502824 -0.833907 0.16216472 0.24850349 0.4675234 0.2860115 0.27433467 -0.8431907 0.3285031 0.9070592 0.54729056 -0.07426812 -0.026935766 0.31873548 -0.42495483 -0.040169865 -0.21973743 -0.059417456 0.9726915 0.56357086 -0.13874757 0.3032956 -0.3818387 -0.28866887 0.330565 -0.04822592 -0.3748635 0.045887798 -0.22038305 -0.023230638 -0.35577568 0.49535388 0.2148853 0.85946023 0.026357617 -0.34639814 0.07728921 0.27632633 0.57627404 0.78198695 -0.70011073 0.7300089 0.26838034 0.4941415 0.46578565 -0.5965766 -0.21436471 -0.48414987 -0.30708647 0.6142282 -1.2372555 0.8629764 0.81044805 -0.19179638 -0.21429309 -1.0104142 -0.7716865 -0.40337273 -0.18014409 0.62557524 0.4343809 -0.28269562 0.1407001 1.0004716 0.3999634 -0.22367576 0.35716644 0.43924206 -1.2820512 -1.218186 0.25991616 -0.6088884 -0.031949755 -1.4220963 1.4759656 -0.109419025 -0.60467505 -0.75511026 -0.64370716 1.0308677 -0.13103929 1.092852 0.09870897 -0.65479356 -0.22830948 0.36253136 1.0040327 -1.133178 0.21795952 -0.4149693 -0.32707658 -0.588258 1.5091088 -0.35695463 -0.29235318 -0.4699215 0.6577013 0.18230477 0.16770741 0.0862317 -0.09105152 -0.020953868
pop -0.8682032 1.2465259 0.36322582 1.288976 0.14546551 0.10426912 -0.8371523 1.2726845 -0.55116475 -0.348968 -0.7444193 0.4504978 -0.24852714 -0.15197611 0.66889644 0.025350485 0.17238894 0.6816208 -1.037273 -1.3925484 -0.3709073 0.17256291 0.27029866 -0.31836888 -0.48869675 -0.8978854 0.24038248 0.41402218 -0.30922005 0.14634664 -1.8296306 0.45177928 -0.0583088 0.12490897 1.1701275 1.4278188 -0.50081825 -0.33930966 0.092649125 -0.032597523 -0.3689632 -0.9162275 -0.28080404 -0.25566506 1.0218859 1.1377469 0.07737982 -0.52256125 -0.24853203 0.068651035 0.27938673 0.6477194 0.6476978 0.09371383 1.187867 -0.18105143 -0.038985748 0.11614946 0.23961098 0.11201545 -1.0429388 -0.011079345 -0.17629497 0.09264166 0.19862317 0.41128656 0.14217955 -0.12200425 0.44937292 0.24524605 -0.2918092 0.19257885 -0.051404774 -0.347344 0.11381182 0.08687838 0.19037357 0.25721806 -0.5279105 0.83584803 -0.18178102 -0.16874261 -0.6375368 0.7731038 0.14934488 -0.6572068 -0.16632555 -0.3588327 0.3026956 -0.3507789 0.68617606 0.40397027 -0.3479817 0.24733457 -0.20736167 0.42533323 -0.47762734 0.25665304 0.38695282 -0.13899441 0.12938985 0.12339163 0.6060075 0.18322524 0.013182187 -0.14407249 0.35404453 -0.35423854 0.033374887 -0.89194137 0.013809917 0.24695106 -0.26920468 -0.7251854 -0.20374162 -0.060121488 0.29787502 0.47913828 0.5956173 0.40906715 0.7538187 -0.34609413 -0.08019983 0.022180455 -0.31266153 -0.09606757 -0.1804903 0.3228981 0.014797243 0.11174399 -0.28310892 0.10355361 -0.13773735 0.38584703 0.18989292 0.39053574 -0.44444478 0.44870618 -0.09405217 0.3834122 -0.20673287 -0.3106948 0.27803868 -0.08435843 0.50180477 -0.96679026 -0.20893314 -0.36496812 0.32174158 -0.24402373 -0.6291301 -0.7225885 -0.1292582 -0.9501435 -0.94156814 -0.42259935 0.90357196 0.66223496 -1.1688168 -0.118126445 -0.21590352 1.1091051 0.11694943 0.57990605 0.53218883 -0.81690466 0.024251113 0.38193214 -0.45222965 -0.039655957 -0.35607955 -0.16278735 -0.12686627 0.28909045 -0.46390045 -0.016217086 -0.06508098 0.19984041 0.575063 0.058340404 0.54539365 -0.554503 0.70951104 0.44355083 0.008782919 -0.7668161 -0.22980392 -1.124865 -0.33934432 0.5649436 -0.84617984 -0.31553254 -0.41305336 -0.55685335 0.62620354 0.15370628 -0.2927105 0.44044238 0.19216229 0.06066015 0.37366316 -0.94616413 0.08647015 0.32211363 0.3287139 -0.3881938 -0.06304095 0.46394485 0.13610458 -0.175501 0.6327743 0.42282787 0.32778382 0.010758576 -0.8053587 -0.35939595 0.39977887 0.4508423 0.5762588 0.10394169 -0.54148 -0.37522495 0.027916929 0.24403404 -0.040218912 0.8688119 0.42985862 0.16813691 0.23771481 0.6197944 -0.28413442 0.612503 -0.677888 -0.097570874 0.3932177 -0.2984874 -0.57607585 -0.6430449 -0.3948469 -0.11598737 0.20651439 0.13103737 1.1903903 -0.07948039 -0.071830064 -0.16762699 -1.2067986 0.51895696 0.71193594 1.1410443 0.16696694 0.46809405 -0.29964396 0.00959435 -0.76393646 -0.34756282 0.23150598 0.23649347 -0.8058198 -0.46796113 -0.34017155 -1.0181595 -1.4606289 -0.11759455 -0.18015543 0.44081625 0.4763453 1.1325972 -0.11054085 0.021977691 0.75704426 -0.5444906 -0.28634933 0.50271195 -0.10902032 -0.044358317 0.3681526 0.33279192 0.29616383 0.95926076 -0.38608685 0.00023056279 -0.26969695 0.021137333 -0.05770089 -0.04649118 0.30957004 0.31743178 0.030564953 -0.16313541 -0.058234513 -0.14538695 0.23256414 0.07898962 -0.20437227 0.37845522 0.37466192 -0.20135301 0.27442375 -0.36511338 -0.88475704 0.06253399 0.3535721 -0.14319071 -0.21872555 0.1997163 0.17470706 -0.07059967 -0.16090229 -0.06976837 -0.19987112 -0.10468123 -0.336454 0.59036493 -0.26815104 0.4489782 -0.49807104 0.02244285 0.09743529 0.28115988 -0.12770697 -0.009679895 0.19024058 -0.033767484 0.15405427 -0.38588634 -0.3290612 -0.007903494 0.83518296 0.32942706 0.3489765 -0.30903852 -0.09297692 -0.051568933 -0.46212706 0.1846743 -0.08238292 -0.42040598 -0.58712834 0.13731067 -0.25369623 0.11326369 -0.7400858 0.43668076 0.11984036 0.29474407 0.1766684 -0.02004442 0.42865458 -0.29258704 -0.19241898 0.35900313 0.062633745 0.28813013 -0.0019440524 0.453808 -0.298646 0.19230798 0.3489537 0.07965221 0.20965272 0.06147721 -0.050236564 -0.39145574 0.9844552 0.46789908 -0.011452601 -0.51540756 0.0017789132 -0.319256 0.7074831 -0.07250528 0.14441817 0.3510865 -0.33629534 -0.14642526 0.34245336 0.18234459 0.1634238 -0.50929934 0.38365692 -0.25047946 -0.22023948 -0.78161263 -0.3022731 -0.06862527 -0.5616308 -0.008277968 -0.25144848 0.49498463 -0.39120364 -0.28028163 0.43274036 0.04749243 0.10173271 -0.031986266 0.061745495 -0.15673426 0.14590092 -0.04845152 -0.37615013 -0.1202121 0.00017073982 0.19509166 0.06355778 -0.2894796 0.08324335 0.21880138 0.21540642 0.029437395 0.0788594 -0.39431727 -0.17205669 -0.14540274 0.5289436 0.29618385 0.5329488 0.04576724 0.24943787 -0.10891616 -0.39682198 -0.003114149 0.0066553145 0.21735372 0.3325812 -0.0018759622 -0.525103 0.62715334 0.6117251 -0.3907536 -1.0331148 -0.18193634 -0.27379587 0.10632828 -0.18460414 0.04918416 0.08549722 0.11412606 0.50082797 0.5178078 -0.44008747 0.555129 1.392479 -0.8291204 -0.5718569 -0.8171519 0.5794165 0.5730986 -0.59855604 0.10440775 -0.58220816 0.30299312 -0.26471528 0.3210643 0.11459148 0.008299607 -0.0154042095 -0.030026263 -0.12172134 0.1341059 -0.17504221 -0.33537772 -0.3967206 -0.103510045 0.07300088 -0.3100019 -0.114873186 -0.49224252 -0.11904266 -0.255547 0.18458983 0.11533472 0.45318848 0.0013612561 -0.08395657 -0.20069173 -0.15466176 0.5445798 0.18592943 0.18861163 0.2736734 -0.18501267 0.14298186 -0.32399973 0.09926644 -0.033248737 -0.06269529 -0.28746575 -0.092924796 -0.20984195 -0.17046504 -0.34825984 0.38333896 -0.4882838 0.41699567 -0.061104514 -0.006088703 -0.069965124 -0.17108731 -0.20734866 -0.2752876 -0.012155166 -0.10212845 0.68284124 0.28550515 0.26645026 -0.2203317 -0.2191025 -0.32857937 0.35669407 0.09148377 -0.10793386 0.2301981 -0.16215661 0.3262393 0.28012586 -0.037690204 0.1356456 0.47025222 0.5565895 -0.4603032 0.4650276 -0.07026674 0.06640731 0.07417221 -0.089201614 0.39510426 0.49153918 1.2683686 0.49583393 -0.20575169 0.5221299 0.30911762 -0.30107757 0.5747183 -0.4339714 -0.1920313 1.2493601 -0.71718687 0.4122754 -0.79602176 0.49830237 0.15404807 0.23919736 0.27213442 0.18760495 -0.3052022 -0.23946595 -0.26797375 0.29333273 0.41097683 0.060418878 0.27844402 -0.033141594 -0.012927101 -0.3365197 -0.087858245 -0.14896299 0.07435536 -0.6604409 0.22842759 -0.96233493 -0.7696817 -0.7104742 -0.23937497 -0.63934845 0.32418594 0.3122696 -0.11984568 -0.3445294 0.4154687 0.043295227 -0.5984626 -0.08722185 -0.6936987 -0.8554529 -0.23221219 0.57360196 0.19525659 0.1295267 -0.10298754 0.7182822 -0.41645375 -0.23600692 -0.26435217 -0.37976483 0.5904607 -0.74652267 -0.50689924 0.10216903 -0.40296105 1.1161027 -0.8978676 -0.22963405 -0.21500914 -0.565331 0.17727706 0.6432189 -0.16298652 0.43778387 -0.005872458 0.41730165 -1.3484657 1.246411 -0.75887704 -0.41630188 0.47704315 0.38649684 0.68310755 -0.6010747 -0.06382212 0.9207926 0.088708304 -0.66336805 0.3048806 0.80586404 0.08464354 0.4711736 -0.26862633 0.08526286 -0.5074594 -0.080856964 -0.33944285 -0.2739861 -0.29837647 0.33820382 -0.19298355 0.121590845 0.09594155 0.2281035 0.3270736 0.4149317 0.019702492 0.10223868 -0.035726234 0.5017195 -0.10398703 -0.10779729 0.34842527 0.46971333 -0.4411154 -0.37519127 -0.10902814 -0.21423158 0.0037161694 0.20020398 -0.08974937 -0.18077719 -0.043024164 0.3728773 0.3412715 -0.33088124 -0.0459067 -0.67645496 0.053779792 0.697166 0.042282652 -0.06575807 0.07342762 0.1798933 0.514799 0.20488878 0.042851325 0.19730526 0.41888353 0.098600395 -0.22932205 -0.07750067 -0.16263093 0.031643018 -0.019676572 -0.4920213 -0.4362332 -0.28886548 -0.2640659 -0.18828021 0.2426528 -0.21011351 0.32614148 0.008931919 0.15540951 -0.20779282 0.08056151 -0.2815341 -0.020500332 0.21104321 -0.05129572 -0.01606132 -0.07731003 -0.21803916 0.114794195 0.0774593 -0.10291472 0.17413251 -0.061704643 -0.16426176 -0.38347372 -0.00315516 0.30567086 -0.0028025426 -0.15000288 0.2302236 -0.25122806 0.03873502 -0.5345434 -0.04100866 0.0646893 0.14548077 -0.36487013 0.2288386 -0.09631697 0.15874162 -0.1589595 -0.43587363 0.18885286 0.012416738 0.419685 0.0075548743 -0.17494619 -0.105223306 0.17774022 -0.009716961 -0.07428159 -0.49213713 -0.15231217 -0.26542777 0.0866046 -0.17908402 0.00288933 0.09904453 -0.25081903 -0.32796767 -0.59008807 0.21907693 0.7421153 0.2632463 0.041926417 0.009714307 -0.6879273 -0.06520037 -0.19454202 -0.16225833 -0.13035353 0.26594147 -0.0916533 -0.46242362 -0.22738263 0.6605217 -0.1710745 0.07105013 -0.19185935 0.017345559 -0.29819506 0.057110947 -0.14096375 -0.12752183 -0.5331072 -0.11907258 -0.23829861 0.15096508 -0.07230741 0.51629925 0.3670097 -0.31354082 -0.01022525 0.6584902 -0.10201828 -0.41773546 -0.58015376 -0.4766957 1.0212566 0.52484137 -0.10681408 0.01410975 -0.035569936 -0.24734777 0.27188838 -0.71655643 -0.32775578 -0.25134137 -0.35354713 0.096472636 0.41245663 -0.05891299 1.4295549 0.026891965 -0.11664487 0.07051459 0.33414704 -0.30387285 -0.25866574 0.11870239 0.22702181 0.72556555 -0.15034468 0.4122964 -0.124063596 0.08661814 0.5410009 -0.9653507 0.0025631585 -0.42336655 -0.02330265 -0.33460224 -0.4229478 0.1503434 -0.29826558 0.33596373 0.7068944 0.5245968 -0.43669578 0.36764112 -0.69384825 -0.016426362 0.78659815 -0.11742761 1.1789482 0.9720746 -0.18233387 -0.11125552 -0.61773884 -0.105972946 0.19703114 -0.0073036966 0.38707837 -0.071178354 -0.21078543 0.13759515 0.014677897 -0.2895114 -0.34151444 0.43272656 -0.3502061 0.09829487 0.26329207 0.44221184 -0.2759906 0.02498507 -0.39150703 -0.7568983 0.11505861 -0.11736507 -0.22436549 0.1634497 0.4431185 0.10352 0.017187428 0.1980884 0.1810824 -0.077397786 -0.3479744 -0.069690324 0.19434015 0.555292 0.07395909 -0.27324957 0.22641627 0.110427625 -0.30826238 0.50140333 -0.42679322 -0.34476283 0.40787715 0.5098607 0.17715167 -0.5606241 0.036478147 0.2772114 0.18724792 -0.1550943 0.064189404 0.15584737 0.21347098 0.16153266 -0.026853742 -0.13330802 -0.23741244 0.12715203 -0.080414906 -0.18933755 -0.44888285 -0.56597686 0.03031711 -0.5817292 -0.30812287 0.33333522 -0.27268407 -0.09604221 0.2853488 0.0018427538 -0.26289827 0.2851413 0.010265593 0.05876449 -0.22520241 -0.022672582 -0.657339 1.0106561 -0.38988063 -0.99657845 0.4778095 -0.1266036 0.078894965 0.38536865 0.07399942 -0.92817813 0.09237842 0.41449037 0.48559278 0.10288623 -0.26647514 -0.11073416 -0.04095991 -0.4997554 0.22936456 -0.015160102 0.7399881 0.5318648 0.30978703 0.2280635 -0.22760433 -0.17447205 0.039399177 0.19478233 -0.2819297 0.11979022 -0.12172127 0.26812708 -0.002722362 0.6680393 0.40597257 0.23974125 -0.13406321 0.047031485 -0.09244271 0.2237652 0.2919224 0.029615501 -0.6682762 0.30245155 0.18240282 0.5470343 0.3255641 -0.27284932 -0.37778088 -0.50184536 0.21131119 0.5258259 -0.8359188 0.63307774 0.54216164 -0.07064305 -0.36866692 -0.3149047 -0.29181823 -0.59151816 -0.192124 0.5002155 0.6460316 0.02956776 0.019283883 0.7953465 0.17198451 -0.10055887 0.17489322 0.74296606 -1.204621 -0.6398831 -0.11126041 -0.8891142 0.67787474 -0.9839903 0.8536585 -0.17860842 -0.08759266 -0.15835862 -0.62659264 0.42754972 0.17993714 0.38036683 -0.25050318 0.46549445 -0.08212645 -0.2542835 0.73112637 -0.52623975 0.23189774 0.3699393 -0.038401105 -0.29044387 0.22076105 -0.038148142 -0.35193995 -0.3162161 0.6536647 0.32802173 -0.07543284 0.13144825 -0.066122696 -0.0023576836
call -0.674661 -0.7064951 0.63237816 1.7862664 -1.5100617 0.017807802 -0.12968816 0.9983917 1.1997907 0.4573749 -1.8276229 0.62185603 -0.6935783 0.30839667 0.81853247 2.3530753 -0.58423185 1.772857 -1.6104163 -1.5894586 -0.48982146 -0.80323124 0.18850249 -0.024313403 -1.8788873 -1.5880402 -1.0226208 0.14744893 -0.017982373 -0.27449492 -1.4534866 0.25910842 0.82448107 -0.016296303 0.5564465 1.2988374 0.24758998 -0.14722882 0.07074573 0.005204189 -0.14664213 -1.0454817 -0.51854974 -0.59181464 0.26144993 1.2402232 -0.14615025 -0.054784477 -0.034233067 -0.1545533 0.963329 -0.10278922 1.1766763 -0.15170375 1.0799555 -0.73801047 -0.7772091 -0.47363025 -0.39478272 -0.24866606 -0.3765228 1.0608505 -1.2287772 -0.31320488 1.0105247 0.5761951 0.25348055 0.43138772 0.66607505 0.13616017 -1.2896507 1.1082301 0.024344124 -0.06313829 -0.013046891 0.108332776 0.034786653 -0.6321307 -0.5714776 0.53582716 -0.17633936 -0.09979998 -0.49746087 0.3817864 0.017342752 -0.4096631 0.22746785 0.0101076495 0.22498487 0.17942914 0.8044349 0.5335352 -0.60297686 0.37705398 0.16578993 0.9935283 -0.34581423 -0.4072152 0.41175488 -0.54904205 -0.118555926 -0.18755691 1.4499301 -0.09317665 -1.2807934 -0.26715 0.4448366 -0.22300616 -0.56020224 -0.58656883 -0.13140102 0.094375715 -0.6270558 -0.6061306 0.1679181 0.54727685 0.5327907 0.62382627 -0.8065085 0.14682537 0.67061555 0.101372264 -0.22201118 0.30989814 -0.16001712 0.16064635 -0.15141112 0.08026401 -0.60009265 -0.61388475 0.8268572 -0.0538697 -0.4953243 0.6776745 -0.36275968 0.28459468 0.72819746 -1.8630929 0.5409511 -1.2274067 -0.49400216 1.1948448 0.48117602 0.19355492 0.7495035 -0.40136555 -0.25922358 -0.0017124125 1.1964082 -0.28228843 -0.71432835 -0.8801174 -0.71414167 -0.43794772 -0.8268752 0.41047072 -0.28781715 0.09443319 -1.0568063 -0.781438 1.374514 1.6189365 0.71459645 1.0220963 0.78577965 0.20186605 0.23889065 -0.13505249 -0.348157 -0.45071557 -0.19485003 0.46652067 -1.325245 -0.37216783 -0.94707674 -0.26359242 -0.37999165 0.35263756 0.43991125 1.0233345 1.5814968 -0.5177205 0.47445992 1.120609 -0.022385595 -0.6439842 -0.5800755 -1.0247641 -0.02746402 0.9755264 -0.74288595 -0.10619683 -0.016431795 -0.3551246 0.5716846 0.07242128 -0.26064384 -0.58215064 0.15745969 0.20408772 0.36758134 -0.66701365 0.25859722 0.5915499 0.19489668 -0.28596237 -0.22105004 0.7046814 -0.03627645 -0.52228796 0.398369 -0.033968925 0.7992395 -0.2642243 -0.62274307 -0.20520207 0.06378381 0.548967 0.10725546 0.10631209 -0.23887305 -0.40739805 -0.30617717 0.29878113 0.43416983 0.7925022 -0.05259739 0.06652444 0.34958372 0.93366575 -0.9087278 0.7620933 -1.1183038 0.33555394 0.67544633 -0.3032829 -0.70973766 -0.028576395 -0.46895373 -0.39157256 0.5195899 0.35234144 0.76653504 0.85372674 -0.76358455 0.5117176 -0.5076866 0.92420274 0.5203304 1.028397 1.4368237 0.7917717 0.16128513 -1.0389382 -1.0098233 0.4754737 0.4704723 0.09170659 -0.20040847 -1.2961937 -0.51958513 -0.43361658 -1.8413624 -0.59743786 -0.30796382 0.43962905 0.42638823 0.12052591 0.3822503 -0.085598014 0.06760234 -0.27372688 -0.6229174 -0.2568527 0.14651582 0.13762973 0.7106599 0.5008699 1.1879331 0.9264673 -0.9323688 0.59865475 0.17520532 -0.347504 -0.03433758 0.6925773 -0.2025412 -0.06740529 0.05693965 0.058451608 -0.15025596 -0.19665395 0.35902458 0.10382154 0.39053884 0.91505605 -0.025421761 0.0873766 -0.25284526 0.17365643 -0.41616556 -0.4162353 0.24026592 0.10358546 -0.588331 0.2949326 -0.06698703 -0.14225115 -0.8875415 -0.14483929 -0.38538578 -0.28956696 0.15492186 0.08303509 -0.32850474 0.07101311 -0.698727 0.0874577 0.2860665 -0.1771639 0.45152405 0.39445713 0.5228403 0.50213224 0.67719674 -0.31445596 -0.22394878 -0.257114 0.50388145 0.2499317 0.05781704 -0.41649786 6.434919e-05 -0.2783917 -0.34843963 0.3276994 -0.3537343 -0.52283293 -1.1194252 0.47490102 -0.051601663 -0.18643755 -0.4017822 0.1746135 -0.42672685 0.58794045 -0.5153104 -0.058106814 0.55926543 -0.08531385 0.119582154 0.28288555 0.3209821 0.27553988 0.024640126 0.8765977 -0.3941335 0.20956399 0.8535428 0.47891054 0.039069455 -0.32755125 0.5120691 -0.5336602 1.1692315 0.50422823 0.3414552 -0.2766162 0.15953685 -0.55929136 0.0947237 0.46210685 0.05193286 0.26269647 -0.49912584 -0.080498785 0.38324204 0.09023321 0.63189286 -0.9815778 0.48662722 -0.591668 -0.19305956 -1.107739 -0.072561845 0.48926553 -0.25820485 0.05836014 0.51240647 -0.065534 0.19160548 0.109627895 0.6481228 0.31325427 0.1623319 0.19046564 0.2427286 -0.38848856 0.038394436 0.31668213 -0.27809674 0.022767313 -0.24745294 0.47516763 0.272774 -0.75110334 0.10546177 0.32493117 -0.04715553 -0.38354436 -0.06640236 -0.4905666 -0.2716322 -0.31109807 0.23841709 0.7990812 0.97583616 -0.2957296 0.097689375 0.316885 0.09314743 0.15659258 -0.15199344 -0.059037134 -0.026876269 -0.35267913 0.09371654 0.73100555 0.2162627 -0.49216732 -0.25737104 -0.05504055 -0.27203867 -0.30457705 -0.22665133 -0.12836264 -0.32857287 -0.12752415 0.28426364 0.12661473 -0.5965575 0.32418427 1.1266267 -0.8027968 -0.61612016 -0.049281403 0.66249466 0.44636256 -0.43163013 -0.36691955 -0.17039031 -0.15644039 0.08198282 -0.321642 -0.59316933 0.4586082 -0.47016525 -0.49796677 -0.16027124 0.24147983 -0.2538167 -0.30490842 -0.6016219 -0.20363657 0.41157526 -0.20846307 -0.076429196 0.17418545 -0.3933384 -0.70295393 0.33694103 0.4164806 0.21484162 -0.37802902 -0.24125953 -0.0287468 -0.13475078 0.8622254 -0.11774903 -0.5907065 -0.67817456 0.60149884 0.5478397 -0.14591591 -0.4377101 0.12843572 0.16559261 -0.6662219 0.6217998 0.9018821 -0.28032163 -1.0947407 -0.1195747 -1.0738776 1.0296835 0.333025 0.38155606 0.4903265 -0.22004198 -0.7076145 0.05734101 -0.17611507 -0.15706953 1.0468729 1.4054081 0.5607597 -0.98877066 -0.14973266 -0.27782682 0.51320237 0.19555941 -0.14193916 1.5840706 -1.1650428 0.80243623 -0.5224204 -0.1465644 0.30645174 0.9701693 0.7035966 -0.18672574 1.1961994 0.070564866 0.49376962 0.36626482 -0.867013 0.32888654 -0.17636243 1.1595443 0.2559561 -0.38933566 0.17497742 0.45806947 -0.6819785 0.46077302 0.23188499 -0.18887182 0.7772488 -1.0730156 -0.7553327 -0.5554803 -0.16549571 0.700814 -0.1773441 0.13798778 0.05359947 -0.0653354 -0.792723 -0.49188465 0.5251115 0.41545954 0.9151492 0.22481914 -0.2684336 -0.30830088 -0.3446048 0.7771367 -1.0251019 0.26792413 -1.1002475 -0.09128812 0.20939405 -0.4936558 -0.2900748 -0.35597268 -0.8104286 -0.63082296 0.24526359 0.27897292 0.9141272 0.02785226 -0.23599581 -0.42799222 -0.89871734 0.03164916 -0.68897027 -0.28792652 1.2781518 0.1044635 -0.11670667 -0.8456804 0.5585882 -1.1039363 -0.14987127 0.4080002 0.17199385 -0.085714705 -0.14699733 -0.070207566 0.37259305 -0.7393724 0.5629934 -0.48100865 0.5488712 -0.009055174 -0.88879514 0.47343236 0.4908856 0.33579835 0.31189248 -0.7196719 0.43555012 -2.0436685 1.5661069 -0.4603607 0.034792736 1.1935337 0.92406195 0.2818925 -0.6292916 -0.45165733 1.4991055 0.4817756 -1.0201113 -0.12620947 0.26297924 -0.1603453 0.88611984 -0.43937814 0.07889018 0.2917066 -0.08611154 -0.33970854 -0.36443117 -0.6215538 0.40486303 -0.6385431 -0.19154733 0.5102861 0.029112998 0.49880886 0.8291303 1.000922 -0.311974 -0.9205598 0.037270423 -0.5927238 0.2062378 0.45165706 0.98503464 -1.1648387 -0.20184448 0.28701362 0.0010354228 -0.48268345 0.4528547 -0.1688984 -0.4114262 -0.14174365 0.71170276 0.6561385 -0.6247331 0.3470368 0.2060555 0.26323345 0.66281736 -0.27028278 0.5194475 0.24831729 0.6303159 0.020388193 -0.18853657 -0.30879885 1.0457677 0.5484177 -0.067536384 -0.7965052 0.034615584 -0.7069162 -0.016616307 0.49047005 -1.2768879 -1.2608749 0.24234861 -0.32296148 0.3632639 0.6850565 -1.536211 0.6898929 0.27842474 -0.0007085676 0.12176932 0.29489613 -0.8059402 -0.12401159 0.71420145 0.23002107 0.2478452 0.6790611 -0.57201695 0.025630642 0.079293914 0.29554647 0.023711378 -0.2399937 -0.51443577 -0.64866596 -0.59566385 0.697863 -0.35320377 -0.5684762 0.84812224 -1.0694586 -0.020806776 -0.42067528 0.07624719 0.2758749 0.14768974 -0.7536615 0.16243088 -0.33704832 0.16854993 -0.5105682 -0.40037367 0.4693607 0.5723484 0.34197226 -0.22812438 -0.47616938 -0.08271828 0.24021049 -0.097691156 0.08640982 -0.8265717 0.08776491 -0.15901284 0.22943561 -0.119018465 -0.18603738 0.061237916 -0.32527694 -0.6689909 -0.13317826 -0.13783254 0.64839995 -0.08878525 0.24576168 0.39291438 -0.3652424 -0.42540348 0.010887387 0.31699282 0.47380632 -0.17701821 -0.4606137 -0.89691365 -0.19045107 0.8957799 -0.42579782 0.1278989 0.23872952 -0.24901795 -0.74790186 0.34570095 0.65389854 -0.34358132 -0.32536167 0.032433785 -0.36552942 0.6317719 0.014352069 0.37011784 1.1804279 -0.20864429 0.02810787 0.42271638 0.116547376 0.004830999 -0.238724 0.03480636 1.2582772 0.30357367 -0.06520821 -0.2132789 -0.08307983 0.08199879 -0.37837818 -0.18607518 -0.30636114 -0.17510144 0.22728863 -0.5955687 0.25211504 -0.11556119 1.1193302 -0.2963668 -0.31713644 0.08336143 0.75493866 -0.13437198 -0.6655212 0.5454664 0.66927636 -0.14451848 0.1367923 0.007000332 0.22977985 -0.3654135 0.17683686 -0.7157654 0.41788653 -0.1832113 0.6397321 0.3329872 -0.76350987 0.4036387 -0.2063003 0.71351874 0.80036557 0.90540034 -0.80749196 0.50863653 0.04800347 0.4936568 0.55631447 0.0163444 0.85614616 0.70758456 -0.35493916 -1.0413114 -0.63999414 -0.53241247 0.5510019 -0.53549576 -0.10293197 -0.15622763 -0.3635011 0.17432313 0.3117608 -0.74859196 -0.40899312 0.07942665 -0.4475174 0.09855139 -0.04839161 0.4722403 -0.2227414 -0.1435396 -0.62424743 -0.83401394 0.20693012 -0.029576603 -0.019499287 -0.27544942 0.5463356 0.6564445 0.09356912 0.6228149 -0.05722525 0.012852582 0.010322333 -0.47071475 0.36296725 0.36840823 -1.072877 -0.3898021 0.7590855 0.7016478 -0.12845288 0.6832367 0.37700176 -0.35729003 -0.45046544 0.9593754 -0.20837723 -0.4014422 -0.30623987 0.6592621 0.8094538 -0.19582497 -0.009056374 0.25626984 0.096497126 0.27354133 -0.050474588 -0.4464125 -0.10903274 -0.3286723 -0.023728488 -0.4652127 0.23549753 -1.2246381 -0.40195912 -0.9744766 0.019761968 0.66869456 0.008183803 0.38897896 0.19161841 0.41290012 -0.27720964 0.7764531 -0.5429103 0.35251352 0.15542796 0.29735342 0.005421005 0.950803 0.16511089 -0.73476005 0.63210166 0.286164 0.54967105 -0.33444402 0.043364067 -0.65194553 -0.31654423 0.6230926 0.3962145 0.02175097 0.59210026 0.15192506 -0.18218331 0.38003638 -0.35658067 -0.30158696 0.9840807 0.38801283 -0.12606862 0.43798652 -0.78145784 -0.46521878 0.49689624 -0.26216143 -0.65591323 0.47838116 0.27818966 0.20934936 -0.30610815 0.90861315 0.583021 0.83260006 0.2051654 -0.9974163 -0.10846683 0.6337072 0.7306109 0.4584038 -0.915364 0.7594506 0.021467937 0.59031796 0.21731874 -0.30553597 -0.2438681 -0.29095075 -0.13331442 0.6786167 -1.0312617 1.0987198 0.59223086 -0.27902704 -0.06553446 -0.7971911 -0.7837566 -0.36712483 0.15060745 0.6318972 0.50634366 -0.23753197 0.09985036 1.506535 0.44210467 -0.49256778 0.53450096 0.758274 -2.499078 -1.6336069 0.5581415 -0.5441394 -0.19608343 -1.6390208 1.6883535 -0.3255421 -0.8147595 -0.69151294 -0.86290455 1.5820134 -0.78554446 1.078772 0.16631947 -1.3046081 -0.03190445 0.7403398 1.0384591 -1.7006514 0.43389398 -0.46370807 -0.35921174 -0.84864175 1.7025613 -0.07648394 -0.40030158 -0.18010992 0.75493574 0.2888051 0.2796948 0.092267334 -0.30129513 0.068566516
cmp 1.2578087 -0.043991044 -0.35272276 1.0558826 -1.8331174 -0.08365113 1.7502946 0.80733806 1.4148821 -0.36854732 -0.5770324 0.27328154 0.22809204 0.6832033 -0.23970209 3.5466764 -0.38518003 0.6769792 -0.95931685 0.22651163 0.5259534 -1.2668096 0.77152824 -2.0292213 -0.6777627 -1.04906 1.0178277 -0.62431127 0.42493495 -0.21100427 -0.42877242 0.13360742 0.6476133 -0.16997276 0.08093186 0.82148445 0.005208998 -0.6764519 -0.27851427 0.24986741 -0.22412136 0.057561792 -0.40025002 -0.32476446 0.01880538 -0.255391 0.049146887 0.17122781 -0.33607125 0.09451539 0.8022725 -0.8765778 0.6680104 0.045835916 -0.27086642 -0.85621756 0.25663775 -0.68616027 0.03702311 0.14970168 0.2740709 0.8998641 -1.1048734 0.39540288 0.56922567 0.6992968 0.6653052 0.11336247 -0.27334225 -0.4037146 -0.8141732 1.0005288 0.75191355 0.43884936 0.4486934 0.90248865 -0.14524393 -0.9837659 -0.51681155 0.23442824 -0.076929785 -1.0279552 -0.041433495 -0.7021513 0.2844374 0.11259284 1.2904947 -0.4463634 0.23761317 -0.2251426 -0.043804284 0.25636348 0.076839544 -0.5210727 0.06146135 0.23171628 -0.49270993 0.53049153 0.38959384 -0.3725079 -0.70800245 0.40194824 0.77981275 0.29534817 -0.3158612 -0.5176284 0.27777702 -0.53339297 -1.0988774 -0.5030527 0.46646285 0.09630365 -0.03930361 -0.08945006 0.5206332 1.0152718 0.69443846 0.013351394 -1.2608324 0.2730092 0.09495773 -0.041266605 0.25746793 0.49933347 -0.39327022 1.1644561 0.43699548 -0.08152249 0.15766494 -0.41642344 0.37878066 0.44133353 0.42986688 0.6748294 0.070251815 -0.0753757 0.15776937 -0.36048338 0.34283215 -0.39251763 -0.24908037 0.7138807 0.18483193 0.11727852 0.26766434 -0.27076456 -0.19327971 -0.20189475 0.35526204 -0.045502935 -0.114367984 -0.28860053 0.11866676 0.23128979 0.21992517 0.5339885 -0.548126 -0.034306094 0.25340915 -0.109066024 0.7872483 0.45001146 0.14320958 0.03746908 -0.20661704 0.8446981 -0.23941785 -0.071276285 0.13548636 0.07682387 0.42730585 0.42381 -0.09710274 0.28983638 -0.15252252 0.041804142 -0.3777748 0.4711268 0.2800465 0.88127124 0.81741637 0.48196322 0.16044532 0.83721596 -0.29106122 -0.283123 -0.27434218 -0.33242548 0.26086023 0.5930115 -0.24683112 -0.054165155 0.17644022 -1.0118569 0.33966076 -0.14455132 -0.18074049 0.45264396 0.00021523052 0.42811084 -0.3285712 -0.97741127 -0.33467644 -0.1767835 0.66153854 -0.14485584 -0.121150896 0.6173951 -0.18214616 -0.65551835 0.34473568 0.5140971 0.78953964 -0.5894591 0.06119055 0.3366985 0.06579296 0.61029136 0.20606366 0.51530856 0.43731976 -0.3767439 0.036457002 -0.1559759 0.54737914 -0.28531656 -0.70180523 -0.2500034 -0.5447501 -0.20345926 -0.062345654 -0.4636366 -0.4138585 1.3789277 -0.28359857 0.52953744 0.007719496 0.35173708 0.36728162 -0.9019185 -0.31471366 -0.30549127 0.4025656 0.24956198 -0.4043262 0.16386753 -0.119808234 -0.45978352 -0.22696832 0.51339847 0.43988013 0.3975688 -0.05928525 -0.8233984 -0.05755129 0.5801188 0.0047091413 0.11180103 0.20829871 -0.852237 0.16876589 0.45687416 -0.97723496 -0.7788392 0.17097072 -0.23353137 0.4100367 -1.2085056 -0.09120562 -0.096104145 -0.78226376 0.51945496 -0.2591019 -0.07161763 0.41120645 -0.30450183 1.1320721 0.6207974 1.4475948 -0.14626142 -0.3223267 0.06267014 0.33636805 -0.61381686 -0.4553913 0.6912793 -0.12880914 0.10645166 0.14087279 0.7568281 0.3815969 0.06305658 0.25448292 -0.15129627 0.33563444 0.49101964 -0.375088 0.41583145 -0.47174323 0.50981486 0.11063062 -0.3301141 0.09239771 -0.31742063 -0.7528525 0.69126785 -0.06589862 -0.7514742 -0.4170755 -0.021396374 -0.54460967 0.046423625 0.6823749 0.2951747 -0.13541539 -0.13286202 -0.24724758 0.043005154 0.021961728 0.31732827 0.06327141 0.52341956 0.555849 0.3739069 0.4799338 -0.32350293 0.0631753 -0.08865826 0.19532263 0.23355037 -0.096979186 -0.33478212 0.3139725 -0.46015796 0.70599955 0.2281925 -0.7841385 0.054005098 -0.63003266 0.45429197 0.2213063 0.37707922 0.4289204 0.11454124 -0.36408448 0.093615815 -0.62018603 -0.14731227 -0.82486576 -0.31163868 0.71265507 -0.17228997 -0.15963507 -0.27032903 -0.23065558 0.8363195 -0.13667947 0.11412844 0.631896 0.4379426 0.35063648 0.057601012 -0.1120824 -0.032025944 0.70087963 0.4314808 0.39076087 0.3652893 0.4093689 -0.1950171 0.05747415 0.61889106 0.16526426 -0.30727074 0.022977402 -0.68583333 -0.2646313 0.2176229 0.38635716 -0.07586115 -0.04778753 0.25785556 -0.0387022 -0.05444091 0.29371992 -0.89823925 -0.19137871 -0.6951404 -1.247525 0.2221297 -0.23229443 0.24517493 0.0016640141 -0.1664642 0.06124465 0.42811236 0.16991746 0.06989342 -0.2449135 -0.12643091 -0.34543803 -0.091055214 -0.3617908 0.26858917 -0.21617539 0.1613994 0.1287788 -0.036013905 0.029290605 -0.004979103 0.14095199 -0.31508955 -0.4810295 -0.08033071 -0.42031142 -0.021843886 -0.43180284 0.10647605 0.5559617 -0.34607518 0.1837522 -0.47408995 0.17858993 0.28406107 -0.26487675 -0.6401756 0.578209 0.32397625 0.21590552 0.75755435 0.6625191 0.33743754 0.51892847 -0.31224257 0.6057441 -0.2707259 -0.09583037 0.1638665 0.12357156 0.25944456 -0.3348627 -0.09960898 0.37331122 -0.6831874 -0.3126782 0.317103 0.10030064 -0.031330176 0.4423694 -0.9516163 0.20902224 -0.3871175 -0.30787158 -0.3618185 0.0676409 0.4182348 0.5641607 0.6976934 -0.29869303 -0.19014919 -0.6581003 -0.070286214 0.0144895315 -0.34937623 -0.3718671 -0.4876128 0.5194476 -0.095770605 -0.7235182 -0.08251915 0.0031606285 -0.09286196 0.38724604 0.6351517 0.03401728 -0.55095637 -0.23125613 0.27956772 0.12702532 0.5548283 -0.40501285 1.0315617 -0.33735278 0.069407925 0.052838806 0.34278557 0.5636829 -0.45599782 0.23120695 0.3297183 -0.5873988 -0.23729296 0.48413604 -0.6457518 0.64487815 0.32410902 0.09400648 -0.30173755 -0.16976584 -0.51164526 -0.113494225 0.57648736 -0.12208604 0.701345 0.5252227 0.15345554 -0.69940996 -0.27670068 0.45797056 0.20869324 -0.35559168 -0.28563645 0.41335037 0.3059922 0.39607266 -0.35117355 0.21847269 0.09015362 -0.0062498664 -0.30393502 0.010716849 0.32484484 0.29760057 0.5013964 0.51820916 -0.39882234 -0.32410544 -0.21712473 -0.22628148 -0.2416263 -0.019898925 -0.2288476 0.6004226 0.47324738 -0.1594377 0.06572111 -0.08197331 -0.053906173 0.18882425 -0.1867353 -0.20465985 -0.33987373 0.3724291 -0.3775574 -0.18660626 0.0765013 0.04347088 -0.37572014 -0.7170346 0.73589927 0.4470404 0.368565 -0.20462075 0.13574055 -0.12737828 -0.52299565 0.32753927 -0.4340524 0.46066603 -0.829476 0.38458636 0.6113483 -0.23508574 -0.23182844 -0.7286681 -0.3166283 0.06772948 0.2654016 0.24725519 0.82321703 -0.18911773 -0.3798721 -0.12128259 -0.46657947 0.38233873 -0.48752254 -0.2495218 0.70965445 -0.290664 0.33196765 -0.19388357 0.5432197 -0.36061835 -0.0464164 0.4400317 -0.20302744 -0.1786824 -0.12292183 -0.1223437 0.5470637 -0.84356827 0.5649956 -0.5226795 0.44145414 0.049817774 -0.74702626 0.05599153 0.6577521 0.13769571 0.040663783 0.05370067 0.1379116 -0.91885215 1.0190139 -0.3156536 0.18916109 -0.06592962 -0.16216393 0.36278763 -1.0086597 0.1851863 0.5901326 0.1732543 -0.48067486 0.013041905 -0.2998627 -0.16515669 0.34486744 -0.18205005 -0.014096499 -0.23099364 -0.18059465 0.14832711 -0.013895356 0.06441205 -0.006850734 -0.24607916 -0.11208633 0.58530533 -0.10498457 -0.041196227 0.6884083 0.54773104 -0.14247681 -0.7296822 -0.80581534 -0.28491887 0.29628327 0.41177145 -0.06498882 -0.03846706 0.5865246 0.9467356 0.36949378 -0.45611686 -0.2646073 -0.48593265 -0.19752823 0.23002616 -0.07616741 0.26238987 -0.26846913 0.5307754 0.513972 0.32375625 -0.51773024 0.3108659 0.16503711 0.21790645 0.3319279 -0.88608795 -0.19094934 -0.014544084 0.38004267 0.46954036 -0.15688974 -0.64114386 0.12517618 -0.13731289 0.08601525 0.30838594 -0.08249434 0.11556457 0.3202835 0.6613586 0.2562897 -0.08245892 -0.48753807 0.06487345 0.54323184 0.12565953 -0.4576134 -0.11884898 -0.37001997 0.3184699 -0.29744902 -0.34337327 -0.61920124 -0.24547625 0.120943196 0.74121493 0.0117979245 -0.033110153 -0.16682175 0.044864062 -0.30162624 0.37138957 -0.27244666 -0.2127245 -0.3805862 -0.12321174 0.42913532 -1.0235906 -0.33012626 -0.18747853 0.048462685 -0.040986408 0.48314732 -0.16724992 -0.6047247 -0.6255715 0.08393089 0.0029847773 -0.4825144 -0.1675976 -0.71843207 0.28934926 0.030754775 -0.41645628 -0.11470286 0.10313591 0.17874092 0.12952457 -0.12173319 -0.038388405 -0.23075274 -0.15098083 0.03806474 0.6334986 0.18451281 -0.30093476 -0.02362707 0.060453814 0.50240517 -0.088788204 0.02931164 0.092696145 0.12491583 -0.06206999 -0.25217503 0.29692307 0.46953648 -0.23105173 -0.7365401 -0.14674228 -0.17283832 -0.03484089 0.3535111 0.26142132 0.8639243 0.77467686 -0.051286455 -0.48531398 -0.42024216 0.92978555 -0.45211446 0.3244928 -0.2822971 0.4131928 0.45009723 0.3539464 -0.5348574 0.92293024 0.06920666 -0.036676217 0.41086307 -0.55097646 0.034837104 0.019322319 0.23416911 0.12664391 -0.0684207 0.226751 -0.4559488 0.019052215 0.081053995 -0.33428344 0.60528654 0.1837448 0.029559696 0.12375393 -0.44839105 0.1231343 -0.36897564 -0.041059013 -0.06918736 -0.1560241 -0.08887361 0.08973064 0.13751651 -0.47401837 0.27401698 0.7452934 -0.45199868 -0.15400055 -0.06717144 0.17769457 -0.68409437 -0.18793204 -0.4705291 0.4973034 -0.25615296 0.30105257 0.37478316 -0.16872597 0.18662812 0.25829524 -0.24595003 0.5170228 -0.015195999 -0.28192934 -0.45645392 0.49550998 -0.28276482 0.47257248 0.0085278265 0.32714432 0.5209249 0.09735981 -0.36583936 -0.47977084 -0.4025441 0.26705214 -0.027237954 -0.25965735 -0.3669525 4.4339948e-05 0.075201854 0.18637317 -0.25872818 -0.2802524 -0.26925364 -0.017443856 0.19993123 -0.16830175 0.22083366 -0.17076805 -0.023096133 -0.34294015 0.023366926 0.6361997 0.38896954 0.08071099 -0.13061908 0.033905502 0.087184854 -0.18641351 0.58131385 0.23756497 0.3387733 0.36217463 -0.8337783 0.1781542 0.06470927 -0.42490035 0.16881034 0.2880672 0.5197002 -0.46082008 -0.057958595 -0.04753724 0.087395824 0.22303456 -0.047976173 -0.10096222 0.21072562 -0.6287926 0.49757382 0.26277915 -0.24978893 -0.118231975 -0.18205662 -0.2741488 -0.13641591 -0.06918017 0.0801867 0.1201373 -0.21447526 0.15204608 -0.54425114 0.7417621 -0.42630094 -0.44681835 0.08099254 0.45811772 0.45971596 0.6035841 0.56062204 0.19257815 -0.014281171 -0.2871524 0.37311265 -0.20957096 0.15254004 0.5773017 0.30791825 -0.23119056 0.6452295 0.44140896 -0.500792 0.3212173 -0.2272391 0.301553 0.033466373 0.22987159 -0.65605927 0.30270252 -0.62446105 -0.27437913 -0.46370894 0.3446041 0.28733808 -0.35406858 0.47422862 0.03285453 -0.22577862 0.21153581 -0.39877602 0.30348852 0.68202615 -0.7677712 0.21818452 0.5150817 -0.48956695 0.4428317 0.07054835 0.27720678 -0.20671177 -0.062375754 0.23959436 0.2607524 0.0688062 -0.3395127 -0.41478664 0.1405372 0.25047404 -0.14470594 -0.36463037 0.6069839 0.38375342 -0.6158459 -0.063829556 -0.16125432 0.10219392 0.2258869 0.10513729 -0.2364698 -0.36597326 0.18634988 -0.074701615 -0.39820814 -0.13902919 0.13856162 -0.48765752 -0.2505321 -0.22237888 0.34763157 -0.28114784 0.1613583 0.34236738 -0.21571565 0.91856664 -0.70976555 0.2588261 0.36754817 1.1066146 -0.7899499 -0.64692116 0.27170864 -0.23156714 0.33017316 -0.32618022 0.47907567 -0.5261549 -0.32745823 -0.63229585 -0.71969473 0.9074334 0.24230593 0.6097761 -0.16661291 -0.94526386 0.5639512 0.10867824 -0.30637234 -0.611208 -0.17819306 -0.45905283 -0.2658861 -0.57829255 0.66972196 0.30488095 -0.16870072 0.43499815 0.21369591 0.19138113 0.11681163 0.047693677 -0.14693415 0.10877049
dec 0.3588161 -0.4077793 -0.4907055 1.2874047 0.7754258 -0.54038894 -0.25878638 0.15235333 0.7667729 0.44603658 0.5851946 -1.5318348 0.2483563 1.324396 -0.7485746 2.6922412 0.5814366 -0.91784763 -0.30723178 -0.36022288 0.15757184 -0.3706667 0.89734906 1.1678057 -3.2151086 -0.53264385 -1.815136 1.4393932 0.2099111 -0.23700422 -0.07068269 1.2483629 -1.0423388 0.35152298 -0.0898736 0.029058887 0.3923908 0.85786605 0.7273476 0.048983466 -0.34115526 0.048826452 -0.16157833 0.4216409 0.6071339 0.33245233 -0.5690757 0.13444486 -0.07692474 -0.29092646 0.50765526 -0.6220427 0.010468444 -0.37840623 -0.008474974 -0.9922042 -0.5096739 -0.31487286 0.3303842 -0.1949834 -0.10836519 0.16084534 0.22772363 0.3440952 -0.42702925 0.25230986 -0.54142344 0.16748308 -0.8337514 -0.63975644 0.32849586 -0.30612433 0.024476428 0.6073554 -0.31457475 -0.25525412 -0.11491816 0.37643275 0.15436055 -0.05733297 0.24120104 0.11394409 1.0238845 -0.14065999 0.56607157 0.3812077 0.77022487 0.5568638 -0.09470802 0.52922773 -0.24103126 -0.405045 0.23534887 0.3308486 0.0026577201 -0.74235916 0.41495037 -0.47354785 -0.09475132 -0.67153275 0.63011205 0.06311577 0.6993852 1.0658308 -0.32950026 -0.014162825 -0.21520938 0.30580652 -0.09066005 -0.4417894 -0.4558956 -0.3298244 0.13552998 0.06600115 -0.6537004 0.031566527 -0.119198225 -0.48754677 0.7950341 0.3420306 0.19851936 0.41030204 -0.6346911 0.27355927 0.27064413 -1.8180351 0.9534145 -0.25269562 -0.101050206 0.9112087 -0.09856241 0.14397787 -0.11391493 0.6563241 0.2848669 0.62682724 0.09318371 -0.6168249 0.079816565 -0.6835177 -0.21442494 -0.16534266 -0.43211284 -0.042910364 0.6437716 -0.13948601 -0.21562529 -0.4425719 1.3406638 -0.9740126 0.12885231 0.3424242 0.4513207 -0.48660597 -0.80864805 1.0525503 -0.1770806 0.8179264 -0.29962972 -0.21231146 0.9632322 -0.17071868 -0.115489684 -0.7245142 0.47763267 1.4140985 0.7189753 -1.0721464 0.9608256 -0.33458903 0.34446016 0.42816043 -0.18930261 -0.09776982 -0.3520403 -0.84624785 0.14413144 -0.838887 -0.25501627 -0.47673476 -0.62350225 -0.1665953 -0.62854755 0.39167225 -0.60331494 -1.4387196 0.3186001 -1.7891334 0.5072153 1.0051982 -0.17906801 -0.4745277 -0.22596727 -0.09371565 0.5121059 -0.4367524 -0.2258937 0.2605816 0.25034982 0.4492522 0.19732295 0.5805477 0.7378968 -0.6793055 0.04726942 0.08171966 0.0072021214 0.081873424 -0.30064166 -0.45066822 0.47066924 -0.12810546 0.2271365 -0.74598604 -0.541124 -0.04571261 0.76449496 0.56919765 0.70491266 0.1371163 -0.5261408 0.30522928 0.18447673 0.21649809 0.021324648 0.08674447 0.6133478 0.2570437 -0.014924838 -0.96483237 0.5055692 -0.6221167 -0.044880174 0.008643753 0.23314404 0.328079 0.33389744 -0.72925276 -0.11871027 -0.39738595 -0.032615356 -0.859628 -0.3489641 -0.5196139 -0.23197982 0.239396 0.6861367 -0.8213123 -0.34917548 0.051244874 -0.39867103 0.42950124 -0.47689036 -0.058527894 0.021692708 -0.17883281 0.036259994 0.39481038 -0.9032224 0.20798494 -0.34468913 -1.1293395 -0.17684758 0.2840037 -0.17635421 -0.4876292 -0.05589446 0.83406395 -0.6707454 -0.76709217 0.59035164 0.44774708 -0.1610003 -0.17011505 0.09107188 0.68858486 -0.34163192 0.45719078 0.07341556 0.32188636 -0.23375817 -0.6361962 -0.6954991 0.7028032 -0.38608256 0.2932142 -0.2694384 0.3924587 1.0107161 1.2096449 -0.2246665 1.1752838 -0.44518346 -0.029221978 0.06876965 0.16738728 -0.6629246 -0.33634338 -0.27841407 1.1026386 -0.1739986 -0.9137772 0.5090957 -0.92312765 -0.7936474 -0.30289748 -0.396053 0.15179086 -1.1213156 0.85403746 0.023235053 0.06345744 0.19970873 0.11818127 -0.46393734 -0.12719634 -0.74475545 0.09533344 0.17421708 -0.3831818 -0.2599532 0.5913057 0.25232574 0.704207 -0.5554151 0.4598287 -0.57135415 -0.22947235 0.9957791 1.9175174 0.32582322 -0.59579754 0.49281767 0.18519193 0.42820337 0.41921106 -0.15028477 0.5107193 -0.17816453 -0.37299663 -0.25637025 -0.06420027 0.40961945 -0.03033544 0.4474895 -0.57048756 0.05180414 0.44986424 0.9374882 0.6020615 -0.03683652 0.2568733 -0.17707446 0.091568366 -0.43884555 -0.329217 -0.3347745 0.44217268 -0.320979 -0.325609 0.01950617 -0.483074 -0.07825259 0.21121714 -0.41815102 0.004357454 0.08023158 0.39193642 -0.17906171 -0.27442694 0.11538176 -0.6352419 -0.6906422 0.6993385 -0.04984605 -0.13866802 0.11453313 0.062701404 -0.3461265 0.6091426 0.068212025 -0.12591828 -0.21104972 -0.1409028 -0.029739823 0.35619184 -0.083505474 0.26884946 1.1816766 -0.81624305 0.20848906 -0.4222563 0.4048999 0.23072541 -0.6910833 -0.1787253 0.13141415 0.11698215 0.245337 0.7451976 -0.21586788 -0.71872216 0.17767514 0.26010072 0.46688634 0.04616465 -0.27605107 0.19794492 -0.43457827 -0.3654277 0.7399141 0.14801776 -0.053212225 -0.22811452 -0.06271415 -0.1962826 -1.2565157 -0.8422305 0.20127998 -0.533068 0.54432774 0.5478282 0.1621505 -0.8814804 -0.19379503 -0.6234138 0.20738137 -0.66849977 -0.2736449 -0.18368818 0.78173167 -0.37754345 0.8217574 0.033393066 0.07364991 0.36261556 -0.08981865 -0.14704277 0.06283302 0.31784385 -0.14191377 0.6217797 0.07622755 0.14043376 0.2383991 -0.48914078 0.3624363 0.6579637 -0.9096822 0.33037588 -0.26979348 0.08177912 0.39963928 -0.41697937 -0.6575849 0.28751206 1.0950592 0.5787314 -0.17689165 -0.42005977 -0.15474369 -0.26112214 0.4616838 0.1409252 -0.30426148 0.45606232 0.016258508 -0.3792364 0.6592216 0.5885895 -0.47713366 -0.00020432727 -0.09915202 0.078977704 -0.03139167 0.5300354 -0.25046134 -0.7969768 0.35062146 0.5110026 -0.2991253 0.7105202 0.94406426 -0.46903163 0.054095738 0.22736046 -0.6624825 -0.5072527 -0.8943564 -0.48061517 0.6694724 -0.54835707 -0.0059977057 -0.049576603 0.087538384 -0.17528997 -0.15047827 0.2018647 -0.8010329 -0.13848612 -0.21194729 -0.961983 0.10248278 0.46922106 0.39480406 0.52044725 0.6534035 -0.19042334 -0.47100973 0.38779148 0.9013111 0.031158425 -0.21031985 1.1955606 0.41167036 -0.0028798536 0.7799543 1.1529894 -0.40025356 -0.30973828 -0.46552956 -0.52390665 0.4395262 0.3169734 0.2113708 -0.15747407 0.23869455 -0.011660774 -0.3727833 0.27283058 0.24519837 0.17076372 -0.17611751 1.0722413 -0.41147742 -0.48105678 -0.24069099 -0.22481498 0.08590637 0.4751135 -0.75946915 -0.2962888 -0.13304183 -0.12934987 0.059509378 0.36103585 0.24726807 0.53982556 0.9763646 0.68840295 -0.3549229 0.354654 -0.34675652 0.17455584 0.22683443 -0.028714564 0.0076640225 0.33228576 0.4900177 0.22818245 -0.17189723 -0.071598016 0.38034937 0.5713394 -0.068401314 0.10838722 0.0562876 -0.21466105 -0.56909376 0.03497297 -0.33028325 -0.3617282 0.3055027 -0.3530054 0.09878349 0.055778313 0.04297326 0.40764368 -0.35293555 -0.13383505 0.24220476 0.32315278 0.11994995 -0.31532446 -0.32892743 0.27580523 -0.023012718 0.007064047 -0.1575024 -0.02952716 -0.4370508 0.13018896 -0.18965587 -0.043121297 -0.47154722 -0.03966085 0.01568598 0.14985673 -0.06598318 0.51140994 0.8879589 0.2925314 -0.25752997 0.26950502 -0.28661057 -0.16237256 -0.44115418 -0.37091464 0.27882087 0.35232648 0.4391184 -0.27939183 -0.10464531 0.29321095 0.6433492 -0.38330692 -0.37387526 0.05564026 0.006287015 0.3090746 -0.64670455 0.3759322 0.06541974 -0.7918547 0.202807 0.31406176 -0.116360284 0.5105701 -0.32065955 -0.076756805 0.47612056 -0.20023409 -0.20465551 0.2972225 -0.5283592 0.26240838 0.30703652 0.0763404 0.28168362 -0.56802696 0.8791499 -0.19373327 -0.20101255 -0.11129729 0.10711949 -0.2677512 0.8468012 0.60310096 0.75752 -0.49792957 -0.5356012 0.5553755 -0.17173384 -0.6102108 0.11174493 0.41103306 0.7403575 -0.18466184 -0.025023948 -0.51393247 -0.64014566 0.20749466 -0.38365376 -1.7358708 0.04255779 -0.1437001 -0.91834426 0.2767894 -0.34923998 -0.26342702 -0.1675464 -0.37770292 0.65572906 -0.04411825 -0.46830606 0.36436865 -0.0073925043 0.81885517 0.5454934 0.042762145 0.15037201 -0.13515815 -0.72960484 0.38469872 -0.16273646 -0.43324447 0.33231512 -0.5305339 0.7020545 -0.17123877 -0.6893169 0.22987188 -0.27109396 -0.29669687 -0.16881013 0.06487782 -0.26520252 0.26303965 0.4063912 0.024937429 0.07775963 -0.81653464 0.6074058 -0.038228102 -0.102400824 0.87639725 0.5801713 -0.8109432 0.12573236 -0.2637831 0.36274138 -0.035044253 0.32083538 0.7868972 -0.26475048 0.93133026 0.3725994 -0.57716376 -0.29232907 -0.210832 -0.028467214 -0.29398623 0.050649595 0.035954736 0.41855344 0.3217784 0.15550257 0.48373866 1.0405896 0.68227106 0.10566521 0.26960117 0.7240138 -1.1300474 0.5724737 -0.8005244 1.2819307 0.6195201 0.054239992 0.607031 -0.16346683 -0.22391593 -0.21065809 -0.6994383 -0.33851442 -0.48647088 0.14474164 0.69658875 0.22563377 -0.69219977 -0.39826667 -0.8173393 0.5105745 0.112998955 -0.4173239 0.19171326 0.115973726 0.41994166 0.06037008 -0.040693324 -0.22862624 0.8400057 -0.22219701 -0.09038651 0.64135545 0.25625154 0.47822934 0.32281795 0.20654593 -0.33669022 -0.0655181 -0.65164566 -0.67090315 0.31018236 -0.3135846 -0.016080873 -0.848028 -0.3643779 -0.0006691632 0.56609714 -0.5523695 0.7142 -0.29037732 -0.052138362 -0.10713408 -0.17181471 0.29898757 0.08354871 0.18761997 0.3762909 -0.19587073 -0.42267266 0.25334603 -0.040138908 0.0019430746 0.15551531 0.1268066 -0.3376901 -0.2892294 0.26380494 -0.19526228 -0.41536754 0.33581534 -0.44819382 -0.9934204 0.2766411 -0.72719526 0.48032472 0.55002856 0.24306902 -0.95760924 0.116805956 -0.14150204 -0.10233807 0.40572178 0.1745055 0.30047244 -0.3740923 -0.037713304 -0.055062007 -0.32430357 0.005328486 0.41930833 -0.76101506 -0.17637154 0.044191618 0.83378786 -0.5412469 -0.06325605 -0.3448192 -0.4484184 0.09037329 -0.38979906 -1.2878325 1.3135368 -0.26397088 0.12839608 0.89605945 0.7283857 -0.07329733 -0.5458187 -0.39814338 0.20994614 0.50293684 0.14562212 -0.5264202 0.18115975 -0.029266056 0.6254824 -0.4984696 0.04470354 0.033108752 -0.08519725 1.4965589 0.01509564 -0.4058856 -0.06772456 0.32935193 0.77192235 0.35907704 -0.6973535 0.12394719 1.0622896 0.10058015 0.22946988 0.7913178 -0.021658527 0.078621924 0.081985496 0.048231374 0.14373341 -0.41223657 -0.10055225 -0.07375926 0.039990332 -0.061988406 -0.22419675 0.502527 -0.30658028 0.41330957 0.44129384 0.39656934 0.020108892 0.42175674 -0.1762615 -0.780084 0.0010698834 -0.1689392 -0.09592297 -0.078611344 0.1613494 -0.46365985 0.21152875 -0.97755724 0.35080716 0.490732 -0.14203642 0.5731857 -0.20962752 -0.21861972 0.47197145 -0.48025346 0.006104449 -0.81365424 -0.044826746 0.6465116 -0.22626041 -0.08051378 -0.14090662 0.45312712 -0.19370067 -0.09561682 -0.11108582 -0.34338441 0.0700655 0.16941188 -0.2533268 0.36012942 -0.1432631 -0.17017221 0.10673767 0.07325166 -0.41633478 0.23620752 0.2139274 -0.43684432 0.03679798 -0.06366936 0.23699595 0.12687954 0.45315078 0.49512544 -0.093075216 0.44859737 0.8689426 -0.12575507 -0.3936123 -1.0782164 -0.42394328 -0.6040613 -0.56625223 -0.50604117 -0.7781577 0.14416443 0.59061986 -0.45162228 0.116143666 0.059153046 0.4054861 0.11534935 0.6963081 0.3205752 -0.5150828 0.8964272 1.0658166 0.39205077 -0.22398327 0.31348833 -0.13943565 -0.07448728 0.46373802 0.2822346 0.028175307 -0.49312618 0.18747988 -0.18995255 -1.1501554 0.01748262 0.14780661 -1.4148563 0.28032473 -0.368591 0.13893065 0.35684082 0.20624448 -0.20874779 0.23760915 -0.40327248 -0.5911053 -0.92312473 0.05140058 0.5519582 0.09419453 0.21499892 -0.0004240822 0.931562 -0.12664178 1.1055831 -0.2642874 -0.44654685 -1.1766826 0.21112837 0.009124874 0.67305744 0.8040127 0.09823878 -0.38023838 0.32233146 -0.14117815 -0.1903973
inc 0.5471898 -0.6645767 -1.6855614 1.1118164 1.2076238 0.4717898 0.6480937 0.3365482 0.77778876 0.5667979 0.23360027 -0.6356141 0.23577504 0.9675812 -1.1414896 2.6090438 0.103681214 -0.9666429 -0.8058994 -0.06825015 0.066787474 0.13488156 0.22287355 0.629085 -2.009048 -0.12095032 -0.86490875 1.29685 0.7543435 -0.20947753 -0.41560015 0.6578314 -0.44564116 -0.43890485 -0.2887521 -0.31937483 0.07985887 0.729701 0.5870234 0.045546047 -0.08720775 0.22037229 -0.10503697 0.1645996 0.40990573 0.392151 -0.21497558 0.26587912 -0.1980678 0.068389386 0.7233063 -0.75393105 0.0958681 -0.1967643 -0.6726794 -0.37467805 -0.124382325 -0.41968206 0.17663836 -0.17687397 0.1623918 0.40188956 -0.033759777 0.4189944 0.50886846 -0.45970172 0.5284829 -0.26435444 -0.553403 -0.6806532 -0.43831107 0.6499736 0.21908318 0.7928849 0.096091725 0.053210188 0.31462282 0.30503932 0.37425327 -0.19280007 -0.05542962 -0.30172116 0.2313243 -0.4421771 0.31705445 0.8673947 0.6214515 -0.26207286 0.09100014 -0.043782648 -0.17221965 -0.77268153 0.45581818 0.1689288 0.089379445 -1.3275844 0.25680575 -0.3102121 -0.33380806 -0.37855417 -0.32525656 -0.005629201 -0.29762232 0.14516142 -0.13385636 0.39283663 -0.2501043 0.36552057 0.124172345 0.28756025 -0.36469644 -0.49303454 -0.12646312 -0.05342899 -0.96631074 0.15247521 -0.35076982 -0.052270483 0.8171133 0.30175695 0.14351556 -0.052065533 -0.15475433 0.02685995 0.0033430243 -0.6528006 0.93082243 -0.17560408 0.059552055 -0.28552157 0.27560958 0.6775988 0.7620037 -0.08395329 1.0246886 -0.07178816 -0.3831047 0.3410144 -0.3389837 0.27460477 -0.117079444 -0.46111414 -0.096666664 -0.147689 0.73170197 0.37902847 -0.4354204 -0.3265868 0.4459105 -0.23705244 0.68201804 0.1352674 0.8148216 -0.40565935 -0.5533943 0.6705186 0.21466185 0.49426785 0.18252216 -0.48923954 0.4265407 0.24387942 -0.6120935 -0.3343997 0.48717147 0.6541191 0.96519095 -0.30410436 -0.03594144 0.2546014 -0.25299937 -0.16892011 1.1286827 0.9125053 -1.6036296 0.055287257 0.3568789 -0.32702696 -0.15438052 -0.057144564 -0.18025522 -0.7806857 0.45539305 0.2602648 -0.039284993 -1.076296 0.40682355 -1.024663 -0.13470516 0.5327726 -0.042883575 0.05984113 -0.08905232 -0.36540657 -0.09875602 0.032932017 -0.9809837 -0.07826675 0.31934786 0.8093003 -0.023825556 -0.0064088902 0.5607823 -0.66691375 0.17407909 -0.79771584 0.1083382 0.3782727 0.4555687 -0.06807846 0.42053556 0.09929827 0.001575375 0.499791 -0.27388874 0.32132074 0.09593856 0.50405943 0.65971243 0.8528634 -0.028027609 0.017988378 0.25442907 -0.09048502 -0.07364708 0.33069113 0.35262343 -0.15809768 -0.48360795 -0.33251855 0.4641974 -0.3973666 0.41389138 0.4412297 -0.51716113 0.08536159 0.33169195 -0.1771316 -0.024670934 -0.2421676 -0.34982324 -0.84009665 -0.47049108 -0.4927712 0.32925174 -0.11380219 0.24936047 -1.0681425 -0.49965572 -0.016624093 -0.34667474 0.25456968 -0.48009464 0.4603922 0.61124617 -0.3566787 -0.14478177 0.6215034 -0.47886816 0.23002476 -0.053460088 -0.36240157 -0.2937438 -0.020141682 -0.015308225 -0.56017333 0.23447424 -0.040583223 -0.2128367 -0.78135747 0.22589141 0.21426114 0.07078916 -0.13788356 0.016828077 0.4358078 -0.27508172 0.41840038 0.43463457 0.09138888 0.31569594 0.1251412 -0.42418233 -0.17570756 -0.31982502 0.7072654 -0.3073701 0.45399308 0.38576493 0.97103304 0.43399018 0.87110245 0.6281349 0.06771088 -0.3571662 -0.043391816 -0.9811935 -0.27213487 -0.48122436 0.94516295 0.8062952 -0.98545647 -0.24100867 -1.1100332 -0.7843638 -0.27722827 0.047223315 -0.5320663 -0.5411061 0.7392009 -0.1526414 0.15911369 0.57357013 0.16018414 0.33986866 0.27748996 0.2006801 -0.46937478 -0.35109743 0.30037972 0.3113853 0.527777 0.28095597 0.889976 -0.105564654 0.60913205 -0.46209437 0.05519816 0.4493287 1.3006606 -0.2421215 -0.20479912 0.6513327 0.013230153 1.014244 0.0671986 -0.29985487 0.3762243 -0.1520353 0.006179051 -0.12041293 0.32231528 0.27538088 0.11877584 0.38846788 -0.7325579 0.3286991 0.21547768 -0.114496805 0.20316705 0.16414058 0.375996 -0.48295385 -0.51471615 -0.26014 -0.21571791 0.18581998 -0.012446371 0.12905134 -0.26007327 -0.0075831627 0.009680438 -0.77929467 0.39995983 -0.18160129 -0.14631577 -0.2882896 0.3790902 0.1965995 0.06409861 -0.2490912 -0.3197159 -0.4568513 0.04591356 0.3472067 0.20681733 -0.0504326 0.09378293 -0.35538086 0.5044927 -0.20515132 -0.2479784 -0.30856466 0.38060477 0.26905227 -0.42397508 -0.29181296 0.26447886 0.52636504 -0.035955478 0.15255108 0.057684712 -0.052599147 0.18536274 -0.12085795 0.4891913 0.26972657 0.0663892 -0.25151825 0.33716512 -0.12033064 -0.15142576 0.32195663 0.23387247 0.24623963 0.049415223 -0.15206975 -0.14479043 -0.13460466 0.6173474 -0.3812387 -0.005489723 0.12783214 0.19436485 0.70208436 -0.79143435 0.2772748 -0.33925053 0.38899338 -0.5316744 0.39426228 0.44046608 0.5822299 -0.55104727 -0.4790115 -0.31445026 0.4213301 -0.44641876 -0.48712775 0.5558481 0.8104898 -0.017965283 0.03005112 -0.099347204 -0.28864443 0.18764293 0.22569712 0.29793385 0.08962496 0.46269882 -0.17172815 0.14259799 -0.27126044 0.09266666 0.09485856 -0.14211145 0.2753549 0.23044881 0.12423924 -0.040604446 0.23455314 -0.031937767 -0.15993766 -0.10717251 0.07924852 -0.38415074 0.8885623 0.46919945 -0.15062234 -0.15990978 -0.21666636 0.23448497 0.072393194 -0.034988474 -0.21413167 0.3517307 0.29170442 0.05030943 0.4158705 0.36316314 0.096562214 -0.18583897 -0.09249246 0.2220668 -0.40860847 0.683326 -0.029660884 -1.2222884 0.39093372 0.20440853 -0.22225954 0.78369486 0.42420232 -0.2618951 0.5123338 0.2746795 0.04231625 -0.11571516 -0.9787373 -0.6827986 0.2591793 0.2376751 0.32636786 0.03564929 0.017424487 -0.21518925 0.24047406 -0.5491939 -0.6470091 0.22036302 -0.4514794 -0.36093947 -0.30396423 0.35413146 0.11878439 0.20501626 0.43744344 -0.20396054 0.21213926 0.18696697 0.58271676 0.0007109033 -0.5172412 1.2894775 0.6482957 -0.45642084 0.5521573 0.37522247 -0.22692485 -0.29281005 -0.8446805 0.21652442 0.3753163 0.33674362 0.61422694 -0.48889604 0.3976367 0.32190934 -0.10252668 -0.16600525 -0.14671813 0.23999143 -0.25359604 0.8297237 0.39474392 -0.12175585 -0.3695797 -0.3477332 0.43881476 0.47758788 -0.6647119 0.004418042 0.19802028 -0.19182037 -0.5102116 0.21054713 0.31608734 0.36408597 0.32139528 0.7711157 -0.09713041 -0.29604536 -0.09099167 0.82557064 0.12542719 -0.2329706 0.031182654 0.24218208 0.368482 -0.13224727 -0.05228565 -0.11389813 0.25411302 0.17526297 -0.47963816 0.0481106 0.44337896 0.08308151 -0.44826683 0.2977184 -0.4240828 -0.33670884 0.19146399 -0.17784417 0.11364508 0.058640342 0.28376588 -0.7915458 -0.22285412 -0.022431398 0.71630615 -0.282075 0.5555009 -0.44014007 -0.005652817 -0.434504 -0.5126732 -0.061017904 0.069383875 0.19066194 -0.3318844 0.22480537 0.15553917 0.2676931 0.072433054 -0.38587147 -0.15915757 0.28492934 -0.1584888 -0.22389899 0.4093413 0.0860762 -0.10651943 0.2739519 -0.095710985 -0.39445183 -0.64562064 -0.9688634 0.7259287 0.16618867 0.37845206 -0.6281037 0.048594583 1.114764 0.74535674 0.07954003 -0.27473447 -0.54959244 -0.50942737 0.15435156 -0.70145047 0.24594125 0.026046982 -0.018485015 0.4308491 0.4295072 -0.04802688 0.43628576 -0.10203394 -0.043116305 0.35724634 -0.37532154 -1.0326223 0.51084673 0.30189055 0.41563395 -0.3321435 0.09302323 0.47512498 -0.96842515 0.67625767 0.10852509 0.08329644 0.08928503 0.12992215 -0.109500796 0.5717 0.44446078 0.28161028 -0.44371098 -0.3147518 0.3149652 0.55671 -0.12082624 0.25624958 0.30577078 0.6058629 -0.16208965 -0.045099996 0.25614738 -0.3458729 -0.038558085 -0.11099033 -0.622543 0.12961335 -0.34138024 -0.46691623 -0.24411535 -0.22400227 0.015814818 0.6599224 -0.8664485 0.863097 0.0925221 -0.10946189 0.17931286 -0.18104716 1.1355548 -0.7008027 0.061744634 0.23787993 -0.29896957 -0.66092134 0.39848226 0.08425377 -0.355301 -0.019977698 -0.26305923 0.23409614 -0.34190452 -0.15767504 0.10545696 -0.40538067 -0.0898548 0.20631373 -0.0022883876 -0.3748003 0.5687125 0.13945113 -0.020538848 0.34027183 -0.6845613 0.27662292 -0.02307528 -0.21416876 1.0312603 0.24500419 -0.44880387 0.09157804 0.21407318 0.47807598 0.29760113 0.26055363 0.5347836 0.06572839 0.3093556 0.10800235 -0.13634498 -0.5985402 -0.35456052 0.27340165 -0.18889004 -0.059937567 -0.061132148 0.62654555 0.19615223 0.017075967 -0.3046771 0.6834442 0.1712941 0.51543427 0.08574605 0.079782695 -0.15111212 0.07726652 0.50218225 0.8981139 0.32105526 0.42562762 0.9034762 0.24750488 -0.0041637095 -0.72014886 -0.8998415 -0.18483129 -0.15180536 0.25063923 -0.12645599 0.6588465 -0.21257018 0.060475018 -0.56961256 0.7140093 -0.32603326 -0.500262 0.1236427 0.8572722 0.1709688 0.49482277 -0.070777014 -0.23258093 -0.21136117 -0.46073014 -0.012343392 0.5604157 -0.14595322 0.52592796 0.48918292 0.11946501 -0.46769354 -0.67744166 -0.45558664 -0.3749841 0.13469072 -0.51141226 -0.521317 -0.890405 -0.31168583 0.29220855 0.72523284 -0.6170836 0.51613545 -0.42431456 0.01007983 -0.41687715 -0.07469925 0.3336592 0.017678382 0.061790474 0.65979224 -0.19204804 -0.29813334 0.65553826 -0.45796287 -0.20092553 0.20359045 0.284467 -0.4325443 -0.666566 0.58919126 0.3082899 -0.49933645 -0.20264944 -0.1573539 -0.81501776 -0.12523149 0.14020322 -0.45612004 -0.30142745 -0.29857832 -0.03858453 -0.04285927 -0.2217243 -1.1491833 0.040701907 0.016710656 0.17755651 -0.35504544 -0.31798437 0.5307852 -0.29643258 0.027651709 -0.25115865 -0.2606914 -0.25830346 -0.80076224 0.6573472 -0.52888393 0.043421447 -0.40748936 -0.17910936 -0.43790314 -0.024744995 -0.5861901 0.66052145 -0.4839693 0.41581306 0.19143598 0.49269363 0.5413588 -0.098398305 -0.23140085 0.1295411 0.115330935 -0.012107826 -0.54611415 0.1240776 -0.03701129 0.53114504 -0.345927 0.23693618 -0.2128025 -0.2858928 0.68490046 0.15247795 -0.20080385 0.30727983 0.42563435 0.41886348 0.11775561 -0.064779885 0.019838646 0.63531643 -0.2047881 0.16854276 0.577981 -0.12477058 0.05330227 0.15670393 -0.13002501 0.16936412 -0.37633657 0.028931517 0.17731418 0.03482401 0.02597672 -0.15286072 0.7479267 -0.28944814 0.23835334 0.15504606 0.63467246 -0.20920408 0.7654236 -0.3695016 -0.021592487 -0.12734866 0.092177995 -0.2694991 -0.15724973 0.2714377 -0.38471773 0.31708467 0.25103855 0.19810483 0.29745623 0.5512989 -0.23031618 0.11226127 0.23105864 0.18861136 -0.8102914 0.19669044 0.02317555 0.11923554 0.77773005 0.20648187 -1.1830337 -1.1202744 0.4457625 -0.22096589 0.20565227 -0.34526536 -0.17766462 0.07755322 0.098896176 -0.41622922 0.43392798 -0.049617875 -0.081800684 0.23857105 0.03396655 -0.32852867 0.20460007 0.6430314 -0.56465137 -0.29488868 -0.08557394 0.10609518 0.13139921 0.4042101 0.06394431 -0.47664198 0.64557433 0.550861 -0.08791056 -0.44205695 -1.1688737 -0.012076718 -0.50884724 -0.40025818 -0.39077336 -0.6149652 0.2879558 0.47175577 -0.41615468 -0.2683135 -0.57240653 0.37840986 -0.6626255 0.09994153 0.17608409 -0.23564236 0.18084821 0.6378022 0.28007427 -0.15857118 -0.07979058 -0.15887566 0.1845443 0.14361763 -0.46939567 -0.34199333 -0.055835623 -0.1443069 0.22865564 0.6930078 0.5105563 0.04800733 -0.3812818 0.11946565 0.6629104 -0.9588786 0.077821285 0.3817957 0.31468177 0.28198358 -0.15705699 0.088377714 -1.0644295 0.23719248 0.51130307 0.20757969 0.090668164 -0.60700154 0.81856537 -0.40460962 0.86418205 -0.2534723 0.0062891855 -1.0279801 0.56659585 -0.08254872 0.95637816 0.7603541 -0.23011151 -0.11382431 0.39006254 -0.02436701 -0.0077168555
